digraph Tree {
node [shape=box, style="filled", color="black"] ;
0 [label="Topic <= 0.998\ngini = 0.559\nsamples = 12050\nvalue = [[30, 5166, 706, 4402, 1746]\n[322, 7282, 2436, 828, 1182]\n[144, 6540, 585, 4082, 699]\n...\n[15, 5606, 844, 3950, 1635]\n[8, 154, 61, 49, 11778]\n[17, 2004, 33, 7737, 2259]]", fillcolor="#fffdfb"] ;
1 [label="Екогрупа <= -2.261\ngini = 0.544\nsamples = 9290\nvalue = [[25, 4620, 562, 2721, 1362]\n[273, 5762, 1754, 570, 931]\n[123, 5752, 474, 2294, 647]\n...\n[15, 4909, 458, 2521, 1387]\n[7, 134, 34, 40, 9075]\n[16, 1800, 22, 5810, 1642]]", fillcolor="#fdf6f1"] ;
0 -> 1 [labeldistance=2.5, labelangle=45, headlabel="True"] ;
5 [label="gini = 0.494\nsamples = 499\nvalue = [[3, 121, 16, 231, 128]\n[1, 311, 70, 39, 78]\n[2, 155, 8, 283, 51]\n...\n[0, 128, 31, 206, 134]\n[0, 0, 0, 0, 499]\n[5, 20, 0, 39, 435]]", fillcolor="#f9e1d0"] ;
1 -> 5 ;
6 [label="ОБ <= -0.102\ngini = 0.538\nsamples = 8791\nvalue = [[22, 4499, 546, 2490, 1234]\n[272, 5451, 1684, 531, 853]\n[121, 5597, 466, 2011, 596]\n...\n[15, 4781, 427, 2315, 1253]\n[7, 134, 34, 40, 8576]\n[11, 1780, 22, 5771, 1207]]", fillcolor="#fdf4ed"] ;
1 -> 6 ;
7 [label="НФ <= 0.032\ngini = 0.526\nsamples = 2438\nvalue = [[14, 1426, 118, 492, 388]\n[51, 1586, 302, 166, 333]\n[34, 1538, 86, 437, 343]\n...\n[7, 1371, 102, 572, 386]\n[2, 25, 9, 1, 2401]\n[8, 444, 1, 1562, 423]]", fillcolor="#fcefe5"] ;
6 -> 7 ;
21 [label="Екогрупа <= -0.778\ngini = 0.517\nsamples = 993\nvalue = [[1, 548, 35, 269, 140]\n[15, 680, 91, 72, 135]\n[11, 598, 29, 176, 179]\n...\n[2, 567, 24, 313, 87]\n[0, 5, 0, 0, 988]\n[3, 138, 0, 717, 135]]", fillcolor="#fbebdf"] ;
7 -> 21 ;
25 [label="gini = 0.393\nsamples = 226\nvalue = [[1, 177, 4, 15, 29]\n[0, 191, 11, 12, 12]\n[0, 194, 4, 23, 5]\n...\n[2, 165, 6, 24, 29]\n[0, 4, 0, 0, 222]\n[0, 10, 0, 147, 69]]", fillcolor="#f0b68c"] ;
21 -> 25 ;
26 [label="gini = 0.524\nsamples = 767\nvalue = [[0, 371, 31, 254, 111]\n[15, 489, 80, 60, 123]\n[11, 404, 25, 153, 174]\n...\n[0, 402, 18, 289, 58]\n[0, 1, 0, 0, 766]\n[3, 128, 0, 570, 66]]", fillcolor="#fbeee4"] ;
21 -> 26 ;
22 [label="gini = 0.513\nsamples = 1445\nvalue = [[13, 878, 83, 223, 248]\n[36, 906, 211, 94, 198]\n[23, 940, 57, 261, 164]\n...\n[5, 804, 78, 259, 299]\n[2, 20, 9, 1, 1413]\n[5, 306, 1, 845, 288]]", fillcolor="#fae9dc"] ;
7 -> 22 ;
8 [label="Topic <= -1.596\ngini = 0.532\nsamples = 6353\nvalue = [[8, 3073, 428, 1998, 846]\n[221, 3865, 1382, 365, 520]\n[87, 4059, 380, 1574, 253]\n...\n[8, 3410, 325, 1743, 867]\n[5, 109, 25, 39, 6175]\n[3, 1336, 21, 4209, 784]]", fillcolor="#fcf1e9"] ;
6 -> 8 ;
9 [label="gini = 0.468\nsamples = 327\nvalue = [[3, 87, 57, 157, 23]\n[6, 236, 64, 10, 11]\n[0, 83, 64, 178, 2]\n...\n[1, 77, 77, 126, 46]\n[0, 24, 1, 17, 285]\n[0, 27, 0, 225, 75]]", fillcolor="#f6d6be"] ;
8 -> 9 ;
10 [label="Екогрупа <= 0.493\ngini = 0.527\nsamples = 6026\nvalue = [[5, 2986, 371, 1841, 823]\n[215, 3629, 1318, 355, 509]\n[87, 3976, 316, 1396, 251]\n...\n[7, 3333, 248, 1617, 821]\n[5, 85, 24, 22, 5890]\n[3, 1309, 21, 3984, 709]]", fillcolor="#fcefe6"] ;
8 -> 10 ;
15 [label="gini = 0.522\nsamples = 3340\nvalue = [[5, 1693, 249, 869, 524]\n[110, 2079, 697, 166, 288]\n[34, 2354, 166, 656, 130]\n...\n[6, 1802, 117, 824, 591]\n[3, 53, 9, 11, 3264]\n[0, 536, 16, 2190, 598]]", fillcolor="#fbede3"] ;
10 -> 15 ;
16 [label="gini = 0.521\nsamples = 2686\nvalue = [[0, 1293, 122, 972, 299]\n[105, 1550, 621, 189, 221]\n[53, 1622, 150, 740, 121]\n...\n[1, 1531, 131, 793, 230]\n[2, 32, 15, 11, 2626]\n[3, 773, 5, 1794, 111]]", fillcolor="#fbede2"] ;
10 -> 16 ;
2 [label="НФ <= -0.149\ngini = 0.526\nsamples = 2760\nvalue = [[5, 546, 144, 1681, 384]\n[49, 1520, 682, 258, 251]\n[21, 788, 111, 1788, 52]\n...\n[0, 697, 386, 1429, 248]\n[1, 20, 27, 9, 2703]\n[1, 204, 11, 1927, 617]]", fillcolor="#fcefe5"] ;
0 -> 2 [labeldistance=2.5, labelangle=-45, headlabel="False"] ;
3 [label="Topic <= 1.034\ngini = 0.458\nsamples = 1820\nvalue = [[1, 153, 54, 1379, 233]\n[22, 959, 460, 211, 168]\n[1, 311, 48, 1436, 24]\n...\n[0, 316, 220, 1193, 91]\n[0, 3, 2, 0, 1815]\n[1, 57, 3, 1342, 417]]", fillcolor="#f6d2b8"] ;
2 -> 3 ;
11 [label="Екогрупа <= -0.566\ngini = 0.352\nsamples = 558\nvalue = [[0, 3, 23, 487, 45]\n[5, 390, 12, 94, 57]\n[0, 43, 10, 505, 0]\n...\n[0, 43, 132, 345, 38]\n[0, 0, 0, 0, 558]\n[0, 1, 0, 408, 149]]", fillcolor="#eca470"] ;
3 -> 11 ;
23 [label="gini = 0.27\nsamples = 188\nvalue = [[0, 1, 21, 165, 1]\n[1, 102, 1, 48, 36]\n[0, 0, 2, 186, 0]\n...\n[0, 8, 9, 133, 38]\n[0, 0, 0, 0, 188]\n[0, 0, 0, 41, 147]]", fillcolor="#e58139"] ;
11 -> 23 ;
24 [label="gini = 0.329\nsamples = 370\nvalue = [[0, 2, 2, 322, 44]\n[4, 288, 11, 46, 21]\n[0, 43, 8, 319, 0]\n...\n[0, 35, 123, 212, 0]\n[0, 0, 0, 0, 370]\n[0, 1, 0, 367, 2]]", fillcolor="#ea9a61"] ;
11 -> 24 ;
12 [label="Topic <= 1.421\ngini = 0.465\nsamples = 1262\nvalue = [[1, 150, 31, 892, 188]\n[17, 569, 448, 117, 111]\n[1, 268, 38, 931, 24]\n...\n[0, 273, 88, 848, 53]\n[0, 3, 2, 0, 1257]\n[1, 56, 3, 934, 268]]", fillcolor="#f6d5bd"] ;
3 -> 12 ;
17 [label="gini = 0.532\nsamples = 198\nvalue = [[0, 81, 9, 66, 42]\n[6, 118, 35, 8, 31]\n[0, 118, 6, 61, 13]\n...\n[0, 88, 8, 79, 23]\n[0, 2, 2, 0, 194]\n[1, 34, 0, 107, 56]]", fillcolor="#fcf1ea"] ;
12 -> 17 ;
18 [label="Topic <= 1.439\ngini = 0.425\nsamples = 1064\nvalue = [[1, 69, 22, 826, 146]\n[11, 451, 413, 109, 80]\n[1, 150, 32, 870, 11]\n...\n[0, 185, 80, 769, 30]\n[0, 1, 0, 0, 1063]\n[0, 22, 3, 827, 212]]", fillcolor="#f3c3a1"] ;
12 -> 18 ;
19 [label="gini = 0.328\nsamples = 435\nvalue = [[0, 15, 0, 357, 63]\n[6, 87, 233, 80, 29]\n[0, 29, 0, 406, 0]\n...\n[0, 39, 24, 360, 12]\n[0, 0, 0, 0, 435]\n[0, 1, 0, 377, 57]]", fillcolor="#ea9a60"] ;
18 -> 19 ;
20 [label="gini = 0.443\nsamples = 629\nvalue = [[1, 54, 22, 469, 83]\n[5, 364, 180, 29, 51]\n[1, 121, 32, 464, 11]\n...\n[0, 146, 56, 409, 18]\n[0, 1, 0, 0, 628]\n[0, 21, 3, 450, 155]]", fillcolor="#f4cbad"] ;
18 -> 20 ;
4 [label="Topic <= 1.016\ngini = 0.564\nsamples = 940\nvalue = [[4, 393, 90, 302, 151]\n[27, 561, 222, 47, 83]\n[20, 477, 63, 352, 28]\n...\n[0, 381, 166, 236, 157]\n[1, 17, 25, 9, 888]\n[0, 147, 8, 585, 200]]", fillcolor="#ffffff"] ;
2 -> 4 ;
13 [label="gini = 0.285\nsamples = 105\nvalue = [[0, 25, 24, 52, 4]\n[1, 82, 2, 7, 13]\n[0, 6, 0, 99, 0]\n...\n[0, 8, 73, 24, 0]\n[0, 0, 0, 0, 105]\n[0, 0, 0, 37, 68]]", fillcolor="#e68743"] ;
4 -> 13 ;
14 [label="gini = 0.56\nsamples = 835\nvalue = [[4, 368, 66, 250, 147]\n[26, 479, 220, 40, 70]\n[20, 471, 63, 253, 28]\n...\n[0, 373, 93, 212, 157]\n[1, 17, 25, 9, 783]\n[0, 147, 8, 548, 132]]", fillcolor="#fffdfc"] ;
4 -> 14 ;
}