digraph Tree {
node [shape=box, style="filled", color="black"] ;
0 [label="Topic <= 0.828\ngini = 0.56\nsamples = 12050\nvalue = [[28, 4854, 703, 4795, 1670]\n[255, 7248, 2444, 928, 1175]\n[113, 5907, 579, 4595, 856]\n...\n[10, 5332, 948, 4274, 1486]\n[9, 109, 62, 49, 11821]\n[21, 2091, 19, 7962, 1957]]", fillcolor="#e5813900"] ;
1 [label="Екогрупа <= 0.361\ngini = 0.548\nsamples = 8937\nvalue = [[27, 4340, 550, 2728, 1292]\n[212, 5548, 1675, 606, 896]\n[101, 5157, 476, 2409, 794]\n...\n[10, 4634, 466, 2560, 1267]\n[9, 97, 44, 41, 8746]\n[20, 1867, 15, 5756, 1279]]", fillcolor="#e5813907"] ;
0 -> 1 [labeldistance=2.5, labelangle=45, headlabel="True"] ;
2 [label="Воля <= 0.475\ngini = 0.524\nsamples = 871\nvalue = [[6, 278, 23, 374, 190]\n[7, 573, 133, 51, 107]\n[2, 312, 17, 458, 82]\n...\n[0, 271, 50, 337, 213]\n[0, 3, 0, 0, 868]\n[5, 47, 0, 227, 592]]", fillcolor="#e5813914"] ;
1 -> 2 ;
3 [label="Воля <= 0.425\ngini = 0.456\nsamples = 205\nvalue = [[3, 116, 4, 19, 63]\n[1, 161, 13, 9, 21]\n[0, 139, 4, 17, 45]\n...\n[0, 72, 9, 52, 72]\n[0, 1, 0, 0, 204]\n[5, 31, 0, 56, 113]]", fillcolor="#e5813939"] ;
2 -> 3 ;
4 [label="РП <= 0.262\ngini = 0.442\nsamples = 176\nvalue = [[2, 97, 4, 19, 54]\n[1, 138, 12, 9, 16]\n[0, 113, 3, 15, 45]\n...\n[0, 59, 7, 43, 67]\n[0, 1, 0, 0, 175]\n[5, 21, 0, 51, 99]]", fillcolor="#e5813941"] ;
3 -> 4 ;
5 [label="gini = 0.163\nsamples = 6\nvalue = [[0, 0, 0, 0, 6]\n[0, 0, 0, 0, 6]\n[0, 0, 0, 0, 6]\n...\n[0, 0, 6, 0, 0]\n[0, 0, 0, 0, 6]\n[0, 0, 0, 5, 1]]", fillcolor="#e58139db"] ;
4 -> 5 ;
6 [label="gini = 0.429\nsamples = 170\nvalue = [[2, 97, 4, 19, 48]\n[1, 138, 12, 9, 10]\n[0, 113, 3, 15, 39]\n...\n[0, 59, 1, 43, 67]\n[0, 1, 0, 0, 169]\n[5, 21, 0, 46, 98]]", fillcolor="#e5813948"] ;
4 -> 6 ;
7 [label="Позафракційні <= 0.333\ngini = 0.399\nsamples = 29\nvalue = [[1, 19, 0, 0, 9]\n[0, 23, 1, 0, 5]\n[0, 26, 1, 2, 0]\n...\n[0, 13, 2, 9, 5]\n[0, 0, 0, 0, 29]\n[0, 10, 0, 5, 14]]", fillcolor="#e5813959"] ;
3 -> 7 ;
8 [label="gini = 0.175\nsamples = 6\nvalue = [[1, 0, 0, 0, 5]\n[0, 5, 0, 0, 1]\n[0, 3, 1, 2, 0]\n...\n[0, 0, 1, 5, 0]\n[0, 0, 0, 0, 6]\n[0, 0, 0, 1, 5]]", fillcolor="#e58139d5"] ;
7 -> 8 ;
9 [label="gini = 0.31\nsamples = 23\nvalue = [[0, 19, 0, 0, 4]\n[0, 18, 1, 0, 4]\n[0, 23, 0, 0, 0]\n...\n[0, 13, 1, 4, 5]\n[0, 0, 0, 0, 23]\n[0, 10, 0, 4, 9]]", fillcolor="#e581398a"] ;
7 -> 9 ;
10 [label="НФ <= 0.766\ngini = 0.48\nsamples = 666\nvalue = [[3, 162, 19, 355, 127]\n[6, 412, 120, 42, 86]\n[2, 173, 13, 441, 37]\n...\n[0, 199, 41, 285, 141]\n[0, 2, 0, 0, 664]\n[0, 16, 0, 171, 479]]", fillcolor="#e581392c"] ;
2 -> 10 ;
11 [label="РП <= 0.69\ngini = 0.389\nsamples = 280\nvalue = [[2, 24, 3, 172, 79]\n[3, 161, 46, 23, 47]\n[0, 28, 6, 224, 22]\n...\n[0, 41, 9, 121, 109]\n[0, 0, 0, 0, 280]\n[0, 1, 0, 19, 260]]", fillcolor="#e581395f"] ;
10 -> 11 ;
12 [label="gini = 0.382\nsamples = 160\nvalue = [[2, 21, 1, 62, 74]\n[2, 86, 12, 18, 42]\n[0, 21, 1, 136, 2]\n...\n[0, 35, 6, 114, 5]\n[0, 0, 0, 0, 160]\n[0, 0, 0, 15, 145]]", fillcolor="#e5813962"] ;
11 -> 12 ;
13 [label="gini = 0.314\nsamples = 120\nvalue = [[0, 3, 2, 110, 5]\n[1, 75, 34, 5, 5]\n[0, 7, 5, 88, 20]\n...\n[0, 6, 3, 7, 104]\n[0, 0, 0, 0, 120]\n[0, 1, 0, 4, 115]]", fillcolor="#e5813988"] ;
11 -> 13 ;
14 [label="Самопоміч <= 0.917\ngini = 0.497\nsamples = 386\nvalue = [[1, 138, 16, 183, 48]\n[3, 251, 74, 19, 39]\n[2, 145, 7, 217, 15]\n...\n[0, 158, 32, 164, 32]\n[0, 2, 0, 0, 384]\n[0, 15, 0, 152, 219]]", fillcolor="#e5813923"] ;
10 -> 14 ;
15 [label="gini = 0.51\nsamples = 277\nvalue = [[1, 125, 5, 102, 44]\n[3, 166, 51, 19, 38]\n[2, 135, 5, 120, 15]\n...\n[0, 137, 16, 92, 32]\n[0, 1, 0, 0, 276]\n[0, 15, 0, 92, 170]]", fillcolor="#e581391b"] ;
14 -> 15 ;
16 [label="gini = 0.284\nsamples = 109\nvalue = [[0, 13, 11, 81, 4]\n[0, 85, 23, 0, 1]\n[0, 10, 2, 97, 0]\n...\n[0, 21, 16, 72, 0]\n[0, 1, 0, 0, 108]\n[0, 0, 0, 60, 49]]", fillcolor="#e5813998"] ;
14 -> 16 ;
17 [label="НФ <= 0.88\ngini = 0.539\nsamples = 8066\nvalue = [[21, 4062, 527, 2354, 1102]\n[205, 4975, 1542, 555, 789]\n[99, 4845, 459, 1951, 712]\n...\n[10, 4363, 416, 2223, 1054]\n[9, 94, 44, 41, 7878]\n[15, 1820, 15, 5529, 687]]", fillcolor="#e581390b"] ;
1 -> 17 ;
18 [label="Topic <= 0.009\ngini = 0.528\nsamples = 6053\nvalue = [[9, 2861, 349, 1938, 896]\n[124, 3829, 1191, 396, 513]\n[46, 3605, 345, 1507, 550]\n...\n[9, 3407, 316, 1808, 513]\n[4, 39, 21, 33, 5956]\n[8, 1420, 11, 4222, 392]]", fillcolor="#e5813911"] ;
17 -> 18 ;
19 [label="Самопоміч <= 0.817\ngini = 0.45\nsamples = 376\nvalue = [[3, 94, 66, 184, 29]\n[5, 278, 72, 12, 9]\n[0, 96, 68, 210, 2]\n...\n[0, 85, 94, 149, 48]\n[0, 25, 0, 20, 331]\n[0, 25, 0, 263, 88]]", fillcolor="#e581393d"] ;
18 -> 19 ;
20 [label="gini = 0.46\nsamples = 168\nvalue = [[0, 54, 10, 89, 15]\n[0, 97, 54, 12, 5]\n[0, 50, 23, 93, 2]\n...\n[0, 51, 19, 63, 35]\n[0, 14, 0, 19, 135]\n[0, 23, 0, 143, 2]]", fillcolor="#e5813937"] ;
19 -> 20 ;
21 [label="gini = 0.399\nsamples = 208\nvalue = [[3, 40, 56, 95, 14]\n[5, 181, 18, 0, 4]\n[0, 46, 45, 117, 0]\n...\n[0, 34, 75, 86, 13]\n[0, 11, 0, 1, 196]\n[0, 2, 0, 120, 86]]", fillcolor="#e5813959"] ;
19 -> 21 ;
22 [label="ОБ <= 0.637\ngini = 0.523\nsamples = 5677\nvalue = [[6, 2767, 283, 1754, 867]\n[119, 3551, 1119, 384, 504]\n[46, 3509, 277, 1297, 548]\n...\n[9, 3322, 222, 1659, 465]\n[4, 14, 21, 13, 5625]\n[8, 1395, 11, 3959, 304]]", fillcolor="#e5813915"] ;
18 -> 22 ;
23 [label="gini = 0.528\nsamples = 1196\nvalue = [[3, 648, 59, 304, 182]\n[16, 761, 123, 97, 199]\n[9, 673, 47, 219, 248]\n...\n[4, 629, 22, 396, 145]\n[0, 0, 0, 0, 1196]\n[3, 230, 0, 869, 94]]", fillcolor="#e5813912"] ;
22 -> 23 ;
24 [label="gini = 0.514\nsamples = 4481\nvalue = [[3, 2119, 224, 1450, 685]\n[103, 2790, 996, 287, 305]\n[37, 2836, 230, 1078, 300]\n...\n[5, 2693, 200, 1263, 320]\n[4, 14, 21, 13, 4429]\n[5, 1165, 11, 3090, 210]]", fillcolor="#e581391a"] ;
22 -> 24 ;
25 [label="ОБ <= 0.762\ngini = 0.534\nsamples = 2013\nvalue = [[12, 1201, 178, 416, 206]\n[81, 1146, 351, 159, 276]\n[53, 1240, 114, 444, 162]\n...\n[1, 956, 100, 415, 541]\n[5, 55, 23, 8, 1922]\n[7, 400, 4, 1307, 295]]", fillcolor="#e581390e"] ;
17 -> 25 ;
26 [label="РП <= 0.738\ngini = 0.512\nsamples = 1348\nvalue = [[10, 831, 108, 229, 170]\n[11, 786, 227, 116, 208]\n[22, 851, 51, 288, 136]\n...\n[1, 632, 66, 253, 396]\n[3, 18, 11, 2, 1314]\n[5, 256, 2, 866, 219]]", fillcolor="#e581391a"] ;
25 -> 26 ;
27 [label="gini = 0.519\nsamples = 366\nvalue = [[5, 207, 54, 49, 51]\n[0, 201, 100, 11, 54]\n[5, 237, 18, 81, 25]\n...\n[0, 110, 40, 90, 126]\n[0, 3, 6, 0, 357]\n[0, 75, 1, 261, 29]]", fillcolor="#e5813917"] ;
26 -> 27 ;
28 [label="gini = 0.499\nsamples = 982\nvalue = [[5, 624, 54, 180, 119]\n[11, 585, 127, 105, 154]\n[17, 614, 33, 207, 111]\n...\n[1, 522, 26, 163, 270]\n[3, 15, 5, 2, 957]\n[5, 181, 1, 605, 190]]", fillcolor="#e5813922"] ;
26 -> 28 ;
29 [label="РП <= 0.738\ngini = 0.54\nsamples = 665\nvalue = [[2, 370, 70, 187, 36]\n[70, 360, 124, 43, 68]\n[31, 389, 63, 156, 26]\n...\n[0, 324, 34, 162, 145]\n[2, 37, 12, 6, 608]\n[2, 144, 2, 441, 76]]", fillcolor="#e581390b"] ;
25 -> 29 ;
30 [label="gini = 0.522\nsamples = 291\nvalue = [[1, 138, 35, 110, 7]\n[45, 144, 43, 25, 34]\n[21, 144, 37, 84, 5]\n...\n[0, 123, 24, 109, 35]\n[0, 6, 2, 3, 280]\n[0, 51, 1, 187, 52]]", fillcolor="#e5813915"] ;
29 -> 30 ;
31 [label="gini = 0.513\nsamples = 374\nvalue = [[1, 232, 35, 77, 29]\n[25, 216, 81, 18, 34]\n[10, 245, 26, 72, 21]\n...\n[0, 201, 10, 53, 110]\n[2, 31, 10, 3, 328]\n[2, 93, 1, 254, 24]]", fillcolor="#e581391a"] ;
29 -> 31 ;
32 [label="Topic <= 0.834\ngini = 0.505\nsamples = 3113\nvalue = [[1, 514, 153, 2067, 378]\n[43, 1700, 769, 322, 279]\n[12, 750, 103, 2186, 62]\n...\n[0, 698, 482, 1714, 219]\n[0, 12, 18, 8, 3075]\n[1, 224, 4, 2206, 678]]", fillcolor="#e581391e"] ;
0 -> 32 [labeldistance=2.5, labelangle=-45, headlabel="False"] ;
33 [label="Екогрупа <= 0.556\ngini = 0.359\nsamples = 822\nvalue = [[0, 32, 61, 670, 59]\n[8, 583, 16, 131, 84]\n[0, 60, 11, 751, 0]\n...\n[0, 61, 259, 452, 50]\n[0, 0, 0, 0, 822]\n[0, 1, 0, 554, 267]]", fillcolor="#e581396f"] ;
32 -> 33 ;
34 [label="Самопоміч <= 0.85\ngini = 0.271\nsamples = 239\nvalue = [[0, 1, 30, 207, 1]\n[2, 129, 2, 63, 43]\n[0, 0, 3, 236, 0]\n...\n[0, 9, 12, 169, 49]\n[0, 0, 0, 0, 239]\n[0, 0, 0, 53, 186]]", fillcolor="#e58139a0"] ;
33 -> 34 ;
35 [label="НФ <= 0.709\ngini = 0.262\nsamples = 168\nvalue = [[0, 1, 14, 153, 0]\n[0, 64, 2, 59, 43]\n[0, 0, 2, 166, 0]\n...\n[0, 9, 12, 98, 49]\n[0, 0, 0, 0, 168]\n[0, 0, 0, 52, 116]]", fillcolor="#e58139a5"] ;
34 -> 35 ;
36 [label="gini = 0.238\nsamples = 96\nvalue = [[0, 0, 3, 93, 0]\n[0, 9, 1, 47, 39]\n[0, 0, 2, 94, 0]\n...\n[0, 9, 7, 31, 49]\n[0, 0, 0, 0, 96]\n[0, 0, 0, 51, 45]]", fillcolor="#e58139b2"] ;
35 -> 36 ;
37 [label="gini = 0.163\nsamples = 72\nvalue = [[0, 1, 11, 60, 0]\n[0, 55, 1, 12, 4]\n[0, 0, 0, 72, 0]\n...\n[0, 0, 5, 67, 0]\n[0, 0, 0, 0, 72]\n[0, 0, 0, 1, 71]]", fillcolor="#e58139db"] ;
35 -> 37 ;
38 [label="ВОБ <= 0.816\ngini = 0.129\nsamples = 71\nvalue = [[0, 0, 16, 54, 1]\n[2, 65, 0, 4, 0]\n[0, 0, 1, 70, 0]\n...\n[0, 0, 0, 71, 0]\n[0, 0, 0, 0, 71]\n[0, 0, 0, 1, 70]]", fillcolor="#e58139ee"] ;
34 -> 38 ;
39 [label="gini = 0.106\nsamples = 52\nvalue = [[0, 0, 15, 36, 1]\n[2, 47, 0, 3, 0]\n[0, 0, 1, 51, 0]\n...\n[0, 0, 0, 52, 0]\n[0, 0, 0, 0, 52]\n[0, 0, 0, 0, 52]]", fillcolor="#e58139fb"] ;
38 -> 39 ;
40 [label="gini = 0.098\nsamples = 19\nvalue = [[0, 0, 1, 18, 0]\n[0, 18, 0, 1, 0]\n[0, 0, 0, 19, 0]\n...\n[0, 0, 0, 19, 0]\n[0, 0, 0, 0, 19]\n[0, 0, 0, 1, 18]]", fillcolor="#e58139ff"] ;
38 -> 40 ;
41 [label="БПП <= 0.607\ngini = 0.341\nsamples = 583\nvalue = [[0, 31, 31, 463, 58]\n[6, 454, 14, 68, 41]\n[0, 60, 8, 515, 0]\n...\n[0, 52, 247, 283, 1]\n[0, 0, 0, 0, 583]\n[0, 1, 0, 501, 81]]", fillcolor="#e5813979"] ;
33 -> 41 ;
42 [label="НФ <= 0.753\ngini = 0.288\nsamples = 291\nvalue = [[0, 1, 0, 236, 54]\n[3, 206, 4, 52, 26]\n[0, 5, 4, 282, 0]\n...\n[0, 24, 63, 203, 1]\n[0, 0, 0, 0, 291]\n[0, 0, 0, 291, 0]]", fillcolor="#e5813996"] ;
41 -> 42 ;
43 [label="gini = 0.259\nsamples = 99\nvalue = [[0, 0, 0, 99, 0]\n[0, 71, 0, 5, 23]\n[0, 1, 0, 98, 0]\n...\n[0, 1, 26, 72, 0]\n[0, 0, 0, 0, 99]\n[0, 0, 0, 99, 0]]", fillcolor="#e58139a6"] ;
42 -> 43 ;
44 [label="gini = 0.266\nsamples = 192\nvalue = [[0, 1, 0, 137, 54]\n[3, 135, 4, 47, 3]\n[0, 4, 4, 184, 0]\n...\n[0, 23, 37, 131, 1]\n[0, 0, 0, 0, 192]\n[0, 0, 0, 192, 0]]", fillcolor="#e58139a2"] ;
42 -> 44 ;
45 [label="НФ <= 0.791\ngini = 0.34\nsamples = 292\nvalue = [[0, 30, 31, 227, 4]\n[3, 248, 10, 16, 15]\n[0, 55, 4, 233, 0]\n...\n[0, 28, 184, 80, 0]\n[0, 0, 0, 0, 292]\n[0, 1, 0, 210, 81]]", fillcolor="#e581397a"] ;
41 -> 45 ;
46 [label="gini = 0.249\nsamples = 118\nvalue = [[0, 0, 0, 118, 0]\n[1, 107, 2, 8, 0]\n[0, 45, 0, 73, 0]\n...\n[0, 9, 74, 35, 0]\n[0, 0, 0, 0, 118]\n[0, 0, 0, 118, 0]]", fillcolor="#e58139ac"] ;
45 -> 46 ;
47 [label="gini = 0.32\nsamples = 174\nvalue = [[0, 30, 31, 109, 4]\n[2, 141, 8, 8, 15]\n[0, 10, 4, 160, 0]\n...\n[0, 19, 110, 45, 0]\n[0, 0, 0, 0, 174]\n[0, 1, 0, 92, 81]]", fillcolor="#e5813984"] ;
45 -> 47 ;
48 [label="НФ <= 0.816\ngini = 0.521\nsamples = 2291\nvalue = [[1, 482, 92, 1397, 319]\n[35, 1117, 753, 191, 195]\n[12, 690, 92, 1435, 62]\n...\n[0, 637, 223, 1262, 169]\n[0, 12, 18, 8, 2253]\n[1, 223, 4, 1652, 411]]", fillcolor="#e5813916"] ;
32 -> 48 ;
49 [label="Позафракційні <= 0.47\ngini = 0.452\nsamples = 1546\nvalue = [[0, 134, 36, 1144, 232]\n[19, 683, 555, 148, 141]\n[0, 291, 38, 1187, 30]\n...\n[0, 325, 117, 1058, 46]\n[0, 0, 0, 0, 1546]\n[1, 75, 3, 1122, 345]]", fillcolor="#e581393c"] ;
48 -> 49 ;
50 [label="Воля <= 0.775\ngini = 0.389\nsamples = 770\nvalue = [[0, 26, 1, 609, 134]\n[10, 230, 301, 119, 110]\n[0, 61, 4, 696, 9]\n...\n[0, 93, 48, 605, 24]\n[0, 0, 0, 0, 770]\n[1, 10, 0, 450, 309]]", fillcolor="#e581395e"] ;
49 -> 50 ;
51 [label="gini = 0.414\nsamples = 370\nvalue = [[0, 20, 0, 258, 92]\n[4, 159, 95, 38, 74]\n[0, 52, 3, 308, 7]\n...\n[0, 54, 21, 280, 15]\n[0, 0, 0, 0, 370]\n[1, 8, 0, 56, 305]]", fillcolor="#e5813951"] ;
50 -> 51 ;
52 [label="gini = 0.289\nsamples = 400\nvalue = [[0, 6, 1, 351, 42]\n[6, 71, 206, 81, 36]\n[0, 9, 1, 388, 2]\n...\n[0, 39, 27, 325, 9]\n[0, 0, 0, 0, 400]\n[0, 2, 0, 394, 4]]", fillcolor="#e5813995"] ;
50 -> 52 ;
53 [label="Воля <= 0.775\ngini = 0.469\nsamples = 776\nvalue = [[0, 108, 35, 535, 98]\n[9, 453, 254, 29, 31]\n[0, 230, 34, 491, 21]\n...\n[0, 232, 69, 453, 22]\n[0, 0, 0, 0, 776]\n[0, 65, 3, 672, 36]]", fillcolor="#e5813932"] ;
49 -> 53 ;
54 [label="gini = 0.501\nsamples = 335\nvalue = [[0, 80, 19, 161, 75]\n[7, 254, 54, 17, 3]\n[0, 157, 25, 132, 21]\n...\n[0, 139, 38, 139, 19]\n[0, 0, 0, 0, 335]\n[0, 40, 0, 269, 26]]", fillcolor="#e5813920"] ;
53 -> 54 ;
55 [label="gini = 0.399\nsamples = 441\nvalue = [[0, 28, 16, 374, 23]\n[2, 199, 200, 12, 28]\n[0, 73, 9, 359, 0]\n...\n[0, 93, 31, 314, 3]\n[0, 0, 0, 0, 441]\n[0, 25, 3, 403, 10]]", fillcolor="#e5813959"] ;
53 -> 55 ;
56 [label="НФ <= 0.88\ngini = 0.558\nsamples = 745\nvalue = [[1, 348, 56, 253, 87]\n[16, 434, 198, 43, 54]\n[12, 399, 54, 248, 32]\n...\n[0, 312, 106, 204, 123]\n[0, 12, 18, 8, 707]\n[0, 148, 1, 530, 66]]", fillcolor="#e5813901"] ;
48 -> 56 ;
57 [label="БПП <= 0.707\ngini = 0.545\nsamples = 558\nvalue = [[1, 238, 32, 217, 70]\n[14, 329, 158, 31, 26]\n[9, 268, 45, 217, 19]\n...\n[0, 218, 91, 178, 71]\n[0, 7, 13, 6, 532]\n[0, 114, 1, 407, 36]]", fillcolor="#e5813908"] ;
56 -> 57 ;
58 [label="gini = 0.535\nsamples = 361\nvalue = [[1, 129, 28, 148, 55]\n[5, 237, 79, 24, 16]\n[3, 155, 29, 162, 12]\n...\n[0, 127, 65, 132, 37]\n[0, 2, 1, 3, 355]\n[0, 50, 0, 284, 27]]", fillcolor="#e581390d"] ;
57 -> 58 ;
59 [label="gini = 0.528\nsamples = 197\nvalue = [[0, 109, 4, 69, 15]\n[9, 92, 79, 7, 10]\n[6, 113, 16, 55, 7]\n...\n[0, 91, 26, 46, 34]\n[0, 5, 12, 3, 177]\n[0, 64, 1, 123, 9]]", fillcolor="#e5813911"] ;
57 -> 59 ;
60 [label="Воля <= 0.475\ngini = 0.524\nsamples = 187\nvalue = [[0, 110, 24, 36, 17]\n[2, 105, 40, 12, 28]\n[3, 131, 9, 31, 13]\n...\n[0, 94, 15, 26, 52]\n[0, 5, 5, 2, 175]\n[0, 34, 0, 123, 30]]", fillcolor="#e5813914"] ;
56 -> 60 ;
61 [label="gini = 0.443\nsamples = 53\nvalue = [[0, 32, 3, 10, 8]\n[0, 44, 3, 4, 2]\n[2, 42, 1, 4, 4]\n...\n[0, 33, 7, 7, 6]\n[0, 3, 0, 2, 48]\n[0, 5, 0, 27, 21]]", fillcolor="#e5813941"] ;
60 -> 61 ;
62 [label="gini = 0.53\nsamples = 134\nvalue = [[0, 78, 21, 26, 9]\n[2, 61, 37, 8, 26]\n[1, 89, 8, 27, 9]\n...\n[0, 61, 8, 19, 46]\n[0, 2, 5, 0, 127]\n[0, 29, 0, 96, 9]]", fillcolor="#e5813910"] ;
60 -> 62 ;
}