digraph Tree {
node [shape=box, style="filled", color="black"] ;
0 [label="Topic <= 0.998\ngini = 0.558\nsamples = 12050\nvalue = [[27, 5080, 719, 4437, 1787]\n[325, 7325, 2437, 826, 1137]\n[147, 6578, 597, 4038, 690]\n...\n[13, 5625, 853, 3960, 1599]\n[8, 141, 69, 42, 11790]\n[14, 1988, 26, 7760, 2262]]", fillcolor="#fffdfb"] ;
1 [label="ОБ <= -0.369\ngini = 0.543\nsamples = 9234\nvalue = [[22, 4542, 556, 2710, 1404]\n[273, 5771, 1746, 557, 887]\n[124, 5772, 486, 2218, 634]\n...\n[13, 4908, 456, 2510, 1347]\n[6, 122, 39, 31, 9036]\n[14, 1776, 16, 5838, 1590]]", fillcolor="#fdf6f1"] ;
0 -> 1 [labeldistance=2.5, labelangle=45, headlabel="True"] ;
5 [label="Екогрупа <= -2.473\ngini = 0.531\nsamples = 2184\nvalue = [[6, 1218, 75, 458, 427]\n[36, 1459, 224, 162, 303]\n[24, 1337, 70, 487, 266]\n...\n[6, 1139, 85, 567, 387]\n[1, 15, 7, 1, 2160]\n[5, 332, 0, 1241, 606]]", fillcolor="#fcf1e9"] ;
1 -> 5 ;
9 [label="gini = 0.457\nsamples = 273\nvalue = [[1, 48, 1, 138, 85]\n[0, 170, 43, 27, 33]\n[1, 69, 5, 159, 39]\n...\n[0, 38, 18, 131, 86]\n[0, 0, 0, 0, 273]\n[2, 16, 0, 13, 242]]", fillcolor="#f6d1b7"] ;
5 -> 9 ;
10 [label="НФ <= -0.871\ngini = 0.513\nsamples = 1911\nvalue = [[5, 1170, 74, 320, 342]\n[36, 1289, 181, 135, 270]\n[23, 1268, 65, 328, 227]\n...\n[6, 1101, 67, 436, 301]\n[1, 15, 7, 1, 1887]\n[3, 316, 0, 1228, 364]]", fillcolor="#fbe9dd"] ;
5 -> 10 ;
25 [label="gini = 0.531\nsamples = 237\nvalue = [[1, 111, 9, 64, 52]\n[3, 127, 19, 39, 49]\n[0, 117, 8, 67, 45]\n...\n[2, 87, 6, 112, 30]\n[0, 1, 0, 0, 236]\n[1, 14, 0, 184, 38]]", fillcolor="#fcf1e9"] ;
10 -> 25 ;
26 [label="gini = 0.496\nsamples = 1674\nvalue = [[4, 1059, 65, 256, 290]\n[33, 1162, 162, 96, 221]\n[23, 1151, 57, 261, 182]\n...\n[4, 1014, 61, 324, 271]\n[1, 14, 7, 1, 1651]\n[2, 302, 0, 1044, 326]]", fillcolor="#f9e2d2"] ;
10 -> 26 ;
6 [label="Topic <= -1.596\ngini = 0.536\nsamples = 7050\nvalue = [[16, 3324, 481, 2252, 977]\n[237, 4312, 1522, 395, 584]\n[100, 4435, 416, 1731, 368]\n...\n[7, 3769, 371, 1943, 960]\n[5, 107, 32, 30, 6876]\n[9, 1444, 16, 4597, 984]]", fillcolor="#fdf3ec"] ;
1 -> 6 ;
7 [label="gini = 0.461\nsamples = 331\nvalue = [[2, 83, 64, 156, 26]\n[5, 247, 58, 8, 13]\n[0, 90, 66, 173, 2]\n...\n[0, 75, 84, 134, 38]\n[0, 21, 1, 13, 296]\n[0, 21, 0, 225, 85]]", fillcolor="#f6d3ba"] ;
6 -> 7 ;
8 [label="НФ <= 0.392\ngini = 0.531\nsamples = 6719\nvalue = [[14, 3241, 417, 2096, 951]\n[232, 4065, 1464, 387, 571]\n[100, 4345, 350, 1558, 366]\n...\n[7, 3694, 287, 1809, 922]\n[5, 86, 31, 17, 6580]\n[9, 1423, 16, 4372, 899]]", fillcolor="#fcf1e9"] ;
6 -> 8 ;
13 [label="Екогрупа <= -1.626\ngini = 0.52\nsamples = 4052\nvalue = [[5, 1844, 206, 1377, 620]\n[117, 2584, 887, 205, 259]\n[46, 2571, 193, 983, 259]\n...\n[6, 2307, 183, 1200, 356]\n[2, 24, 14, 8, 4004]\n[5, 930, 7, 2642, 468]]", fillcolor="#fbece2"] ;
8 -> 13 ;
21 [label="gini = 0.473\nsamples = 169\nvalue = [[0, 42, 8, 87, 32]\n[4, 98, 29, 3, 35]\n[0, 51, 5, 113, 0]\n...\n[0, 56, 12, 73, 28]\n[0, 2, 0, 0, 167]\n[0, 13, 0, 25, 131]]", fillcolor="#f7d8c2"] ;
13 -> 21 ;
22 [label="gini = 0.515\nsamples = 3883\nvalue = [[5, 1802, 198, 1290, 588]\n[113, 2486, 858, 202, 224]\n[46, 2520, 188, 870, 259]\n...\n[6, 2251, 171, 1127, 328]\n[2, 22, 14, 8, 3837]\n[5, 917, 7, 2617, 337]]", fillcolor="#fbeade"] ;
13 -> 22 ;
14 [label="gini = 0.533\nsamples = 2667\nvalue = [[9, 1397, 211, 719, 331]\n[115, 1481, 577, 182, 312]\n[54, 1774, 157, 575, 107]\n...\n[1, 1387, 104, 609, 566]\n[3, 62, 17, 9, 2576]\n[4, 493, 9, 1730, 431]]", fillcolor="#fcf2eb"] ;
8 -> 14 ;
2 [label="НФ <= -0.149\ngini = 0.525\nsamples = 2816\nvalue = [[5, 538, 163, 1727, 383]\n[52, 1554, 691, 269, 250]\n[23, 806, 111, 1820, 56]\n...\n[0, 717, 397, 1450, 252]\n[2, 19, 30, 11, 2754]\n[0, 212, 10, 1922, 672]]", fillcolor="#fceee5"] ;
0 -> 2 [labeldistance=2.5, labelangle=-45, headlabel="False"] ;
3 [label="Topic <= 1.016\ngini = 0.459\nsamples = 1892\nvalue = [[1, 150, 65, 1434, 242]\n[23, 997, 479, 226, 167]\n[2, 325, 51, 1487, 27]\n...\n[0, 347, 238, 1214, 93]\n[0, 3, 2, 1, 1886]\n[0, 60, 3, 1358, 471]]", fillcolor="#f6d2b9"] ;
2 -> 3 ;
11 [label="Воля <= -0.217\ngini = 0.352\nsamples = 564\nvalue = [[0, 2, 26, 494, 42]\n[5, 393, 12, 100, 54]\n[0, 46, 6, 512, 0]\n...\n[0, 36, 138, 344, 46]\n[0, 0, 0, 0, 564]\n[0, 1, 0, 413, 150]]", fillcolor="#eca470"] ;
3 -> 11 ;
23 [label="gini = 0.269\nsamples = 197\nvalue = [[0, 0, 25, 172, 0]\n[1, 106, 2, 54, 34]\n[0, 0, 1, 196, 0]\n...\n[0, 5, 9, 138, 45]\n[0, 0, 0, 0, 197]\n[0, 0, 0, 47, 150]]", fillcolor="#e58139"] ;
11 -> 23 ;
24 [label="gini = 0.329\nsamples = 367\nvalue = [[0, 2, 1, 322, 42]\n[4, 287, 10, 46, 20]\n[0, 46, 5, 316, 0]\n...\n[0, 31, 129, 206, 1]\n[0, 0, 0, 0, 367]\n[0, 1, 0, 366, 0]]", fillcolor="#ea9a61"] ;
11 -> 24 ;
12 [label="Воля <= 0.475\ngini = 0.467\nsamples = 1328\nvalue = [[1, 148, 39, 940, 200]\n[18, 604, 467, 126, 113]\n[2, 279, 45, 975, 27]\n...\n[0, 311, 100, 870, 47]\n[0, 3, 2, 1, 1322]\n[0, 59, 3, 945, 321]]", fillcolor="#f6d5be"] ;
3 -> 12 ;
17 [label="Екогрупа <= -1.837\ngini = 0.509\nsamples = 638\nvalue = [[1, 114, 23, 354, 146]\n[12, 371, 141, 50, 64]\n[2, 201, 34, 376, 25]\n...\n[0, 200, 49, 359, 30]\n[0, 3, 2, 1, 632]\n[0, 35, 0, 298, 305]]", fillcolor="#fae8da"] ;
12 -> 17 ;
19 [label="gini = 0.369\nsamples = 272\nvalue = [[0, 6, 1, 198, 67]\n[5, 117, 75, 24, 51]\n[0, 20, 4, 244, 4]\n...\n[0, 25, 12, 227, 8]\n[0, 0, 0, 0, 272]\n[0, 0, 0, 2, 270]]", fillcolor="#eeac7c"] ;
17 -> 19 ;
20 [label="gini = 0.52\nsamples = 366\nvalue = [[1, 108, 22, 156, 79]\n[7, 254, 66, 26, 13]\n[2, 181, 30, 132, 21]\n...\n[0, 175, 37, 132, 22]\n[0, 3, 2, 1, 360]\n[0, 35, 0, 296, 35]]", fillcolor="#fbece2"] ;
17 -> 20 ;
18 [label="gini = 0.383\nsamples = 690\nvalue = [[0, 34, 16, 586, 54]\n[6, 233, 326, 76, 49]\n[0, 78, 11, 599, 2]\n...\n[0, 111, 51, 511, 17]\n[0, 0, 0, 0, 690]\n[0, 24, 3, 647, 16]]", fillcolor="#efb285"] ;
12 -> 18 ;
4 [label="Topic <= 1.016\ngini = 0.564\nsamples = 924\nvalue = [[4, 388, 98, 293, 141]\n[29, 557, 212, 43, 83]\n[21, 481, 60, 333, 29]\n...\n[0, 370, 159, 236, 159]\n[2, 16, 28, 10, 868]\n[0, 152, 7, 564, 201]]", fillcolor="#ffffff"] ;
2 -> 4 ;
15 [label="gini = 0.285\nsamples = 100\nvalue = [[0, 26, 24, 47, 3]\n[1, 77, 2, 6, 14]\n[0, 5, 0, 95, 0]\n...\n[0, 7, 72, 21, 0]\n[0, 0, 0, 0, 100]\n[0, 0, 0, 35, 65]]", fillcolor="#e68844"] ;
4 -> 15 ;
16 [label="gini = 0.559\nsamples = 824\nvalue = [[4, 362, 74, 246, 138]\n[28, 480, 210, 37, 69]\n[21, 476, 60, 238, 29]\n...\n[0, 363, 87, 215, 159]\n[2, 16, 28, 10, 768]\n[0, 152, 7, 529, 136]]", fillcolor="#fffdfc"] ;
4 -> 16 ;
}