digraph Tree {
node [shape=box, style="filled", color="black"] ;
0 [label="Topic <= 0.998\ngini = 0.558\nsamples = 12050\nvalue = [[27, 5146, 721, 4416, 1740]\n[310, 7318, 2459, 807, 1156]\n[152, 6587, 593, 4039, 679]\n...\n[16, 5601, 834, 3960, 1639]\n[9, 144, 64, 52, 11781]\n[17, 1991, 28, 7770, 2244]]", fillcolor="#fffdfb"] ;
1 [label="ОБ <= -0.236\ngini = 0.543\nsamples = 9272\nvalue = [[23, 4612, 570, 2700, 1367]\n[263, 5768, 1780, 551, 910]\n[128, 5795, 489, 2231, 629]\n...\n[16, 4895, 452, 2521, 1388]\n[8, 124, 37, 43, 9060]\n[16, 1790, 18, 5838, 1610]]", fillcolor="#fdf6f1"] ;
0 -> 1 [labeldistance=2.5, labelangle=45, headlabel="True"] ;
5 [label="Позафракційні <= -1.95\ngini = 0.536\nsamples = 2488\nvalue = [[13, 1352, 110, 556, 457]\n[40, 1639, 301, 172, 336]\n[30, 1490, 84, 553, 331]\n...\n[8, 1265, 108, 663, 444]\n[2, 17, 8, 1, 2460]\n[9, 398, 1, 1396, 684]]", fillcolor="#fdf3ed"] ;
1 -> 5 ;
7 [label="gini = 0.405\nsamples = 211\nvalue = [[2, 18, 4, 121, 66]\n[0, 112, 41, 34, 24]\n[1, 34, 5, 135, 36]\n...\n[1, 21, 7, 101, 81]\n[0, 0, 0, 0, 211]\n[0, 4, 0, 37, 170]]", fillcolor="#f1bb94"] ;
5 -> 7 ;
8 [label="ВОБ <= -0.559\ngini = 0.523\nsamples = 2277\nvalue = [[11, 1334, 106, 435, 391]\n[40, 1527, 260, 138, 312]\n[29, 1456, 79, 418, 295]\n...\n[7, 1244, 101, 562, 363]\n[2, 17, 8, 1, 2249]\n[9, 394, 1, 1359, 514]]", fillcolor="#fbeee4"] ;
5 -> 8 ;
21 [label="gini = 0.528\nsamples = 577\nvalue = [[0, 271, 22, 164, 120]\n[10, 301, 61, 44, 161]\n[7, 314, 29, 151, 76]\n...\n[1, 268, 15, 219, 74]\n[0, 0, 0, 0, 577]\n[1, 111, 0, 363, 102]]", fillcolor="#fcf0e7"] ;
8 -> 21 ;
22 [label="gini = 0.503\nsamples = 1700\nvalue = [[11, 1063, 84, 271, 271]\n[30, 1226, 199, 94, 151]\n[22, 1142, 50, 267, 219]\n...\n[6, 976, 86, 343, 289]\n[2, 17, 8, 1, 1672]\n[8, 283, 1, 996, 412]]", fillcolor="#fae5d7"] ;
8 -> 22 ;
6 [label="Topic <= -1.596\ngini = 0.534\nsamples = 6784\nvalue = [[10, 3260, 460, 2144, 910]\n[223, 4129, 1479, 379, 574]\n[98, 4305, 405, 1678, 298]\n...\n[8, 3630, 344, 1858, 944]\n[6, 107, 29, 42, 6600]\n[7, 1392, 17, 4442, 926]]", fillcolor="#fcf2eb"] ;
1 -> 6 ;
9 [label="gini = 0.466\nsamples = 323\nvalue = [[3, 87, 61, 151, 21]\n[5, 233, 62, 9, 14]\n[0, 81, 58, 182, 2]\n...\n[1, 73, 79, 125, 45]\n[0, 22, 0, 19, 282]\n[0, 20, 0, 226, 77]]", fillcolor="#f6d5be"] ;
6 -> 9 ;
10 [label="НФ <= 0.573\ngini = 0.529\nsamples = 6461\nvalue = [[7, 3173, 399, 1993, 889]\n[218, 3896, 1417, 370, 560]\n[98, 4224, 347, 1496, 296]\n...\n[7, 3557, 265, 1733, 899]\n[6, 85, 29, 23, 6318]\n[7, 1372, 17, 4216, 849]]", fillcolor="#fcf0e8"] ;
6 -> 10 ;
13 [label="Екогрупа <= -1.414\ngini = 0.521\nsamples = 4411\nvalue = [[4, 2042, 236, 1486, 643]\n[121, 2787, 986, 229, 288]\n[53, 2839, 229, 1068, 222]\n...\n[6, 2555, 193, 1256, 401]\n[3, 24, 17, 13, 4354]\n[4, 965, 10, 2908, 524]]", fillcolor="#fbede3"] ;
10 -> 13 ;
23 [label="gini = 0.488\nsamples = 214\nvalue = [[0, 63, 9, 101, 41]\n[4, 136, 34, 6, 34]\n[0, 87, 6, 121, 0]\n...\n[0, 84, 11, 89, 30]\n[0, 2, 0, 0, 212]\n[0, 13, 0, 64, 137]]", fillcolor="#f8dfcc"] ;
13 -> 23 ;
24 [label="gini = 0.516\nsamples = 4197\nvalue = [[4, 1979, 227, 1385, 602]\n[117, 2651, 952, 223, 254]\n[53, 2752, 223, 947, 222]\n...\n[6, 2471, 182, 1167, 371]\n[3, 22, 17, 13, 4142]\n[4, 952, 10, 2844, 387]]", fillcolor="#fbebdf"] ;
13 -> 24 ;
14 [label="gini = 0.529\nsamples = 2050\nvalue = [[3, 1131, 163, 507, 246]\n[97, 1109, 431, 141, 272]\n[45, 1385, 118, 428, 74]\n...\n[1, 1002, 72, 477, 498]\n[3, 61, 12, 10, 1964]\n[3, 407, 7, 1308, 325]]", fillcolor="#fcf0e8"] ;
10 -> 14 ;
2 [label="НФ <= -0.149\ngini = 0.525\nsamples = 2778\nvalue = [[4, 534, 151, 1716, 373]\n[47, 1550, 679, 256, 246]\n[24, 792, 104, 1808, 50]\n...\n[0, 706, 382, 1439, 251]\n[1, 20, 27, 9, 2721]\n[1, 201, 10, 1932, 634]]", fillcolor="#fcefe5"] ;
0 -> 2 [labeldistance=2.5, labelangle=-45, headlabel="False"] ;
3 [label="Topic <= 1.016\ngini = 0.46\nsamples = 1870\nvalue = [[1, 153, 64, 1416, 236]\n[19, 997, 470, 216, 168]\n[2, 319, 48, 1479, 22]\n...\n[0, 345, 230, 1200, 95]\n[0, 3, 2, 1, 1864]\n[1, 62, 3, 1355, 449]]", fillcolor="#f6d3b9"] ;
2 -> 3 ;
11 [label="Екогрупа <= -0.566\ngini = 0.35\nsamples = 559\nvalue = [[0, 2, 26, 488, 43]\n[5, 384, 14, 102, 54]\n[0, 38, 9, 512, 0]\n...\n[0, 40, 138, 339, 42]\n[0, 0, 0, 0, 559]\n[0, 1, 0, 406, 152]]", fillcolor="#eca46f"] ;
3 -> 11 ;
25 [label="gini = 0.269\nsamples = 194\nvalue = [[0, 0, 24, 169, 1]\n[1, 104, 2, 53, 34]\n[0, 0, 2, 192, 0]\n...\n[0, 6, 11, 136, 41]\n[0, 0, 0, 0, 194]\n[0, 0, 0, 44, 150]]", fillcolor="#e58139"] ;
11 -> 25 ;
26 [label="gini = 0.327\nsamples = 365\nvalue = [[0, 2, 2, 319, 42]\n[4, 280, 12, 49, 20]\n[0, 38, 7, 320, 0]\n...\n[0, 34, 127, 203, 1]\n[0, 0, 0, 0, 365]\n[0, 1, 0, 362, 2]]", fillcolor="#ea9a60"] ;
11 -> 26 ;
12 [label="Topic <= 1.421\ngini = 0.467\nsamples = 1311\nvalue = [[1, 151, 38, 928, 193]\n[14, 613, 456, 114, 114]\n[2, 281, 39, 967, 22]\n...\n[0, 305, 92, 861, 53]\n[0, 3, 2, 1, 1305]\n[1, 61, 3, 949, 297]]", fillcolor="#f7d6be"] ;
3 -> 12 ;
15 [label="gini = 0.529\nsamples = 207\nvalue = [[0, 85, 12, 63, 47]\n[4, 123, 43, 5, 32]\n[1, 123, 8, 61, 14]\n...\n[0, 105, 9, 75, 18]\n[0, 2, 2, 0, 203]\n[1, 36, 0, 112, 58]]", fillcolor="#fcf0e8"] ;
12 -> 15 ;
16 [label="Topic <= 1.448\ngini = 0.427\nsamples = 1104\nvalue = [[1, 66, 26, 865, 146]\n[10, 490, 413, 109, 82]\n[1, 158, 31, 906, 8]\n...\n[0, 200, 83, 786, 35]\n[0, 1, 0, 1, 1102]\n[0, 25, 3, 837, 239]]", fillcolor="#f3c5a3"] ;
12 -> 16 ;
17 [label="gini = 0.335\nsamples = 450\nvalue = [[0, 14, 0, 371, 65]\n[6, 102, 232, 77, 33]\n[0, 34, 0, 416, 0]\n...\n[0, 50, 26, 364, 10]\n[0, 0, 0, 0, 450]\n[0, 3, 0, 385, 62]]", fillcolor="#eb9d65"] ;
16 -> 17 ;
18 [label="gini = 0.444\nsamples = 654\nvalue = [[1, 52, 26, 494, 81]\n[4, 388, 181, 32, 49]\n[1, 124, 31, 490, 8]\n...\n[0, 150, 57, 422, 25]\n[0, 1, 0, 1, 652]\n[0, 22, 3, 452, 177]]", fillcolor="#f4ccaf"] ;
16 -> 18 ;
4 [label="Topic <= 1.016\ngini = 0.563\nsamples = 908\nvalue = [[3, 381, 87, 300, 137]\n[28, 553, 209, 40, 78]\n[22, 473, 56, 329, 28]\n...\n[0, 361, 152, 239, 156]\n[1, 17, 25, 8, 857]\n[0, 139, 7, 577, 185]]", fillcolor="#ffffff"] ;
2 -> 4 ;
19 [label="gini = 0.289\nsamples = 96\nvalue = [[0, 23, 20, 50, 3]\n[1, 75, 2, 6, 12]\n[0, 6, 0, 90, 0]\n...\n[0, 6, 67, 23, 0]\n[0, 0, 0, 0, 96]\n[0, 0, 0, 33, 63]]", fillcolor="#e78a47"] ;
4 -> 19 ;
20 [label="gini = 0.558\nsamples = 812\nvalue = [[3, 358, 67, 250, 134]\n[27, 478, 207, 34, 66]\n[22, 467, 56, 239, 28]\n...\n[0, 355, 85, 216, 156]\n[1, 17, 25, 8, 761]\n[0, 139, 7, 544, 122]]", fillcolor="#fffdfc"] ;
4 -> 20 ;
}