digraph Tree {
node [shape=box, style="filled", color="black"] ;
0 [label="Topic <= 0.998\ngini = 0.558\nsamples = 12050\nvalue = [[23, 5141, 703, 4410, 1773]\n[313, 7309, 2436, 832, 1160]\n[151, 6569, 590, 4049, 691]\n...\n[12, 5648, 811, 3936, 1643]\n[9, 147, 67, 44, 11783]\n[16, 1969, 30, 7781, 2254]]", fillcolor="#fefcfa"] ;
1 [label="Екогрупа <= -2.261\ngini = 0.543\nsamples = 9240\nvalue = [[19, 4600, 549, 2689, 1383]\n[264, 5754, 1751, 563, 908]\n[128, 5747, 486, 2236, 643]\n...\n[12, 4928, 426, 2502, 1372]\n[9, 127, 39, 36, 9029]\n[15, 1766, 20, 5832, 1607]]", fillcolor="#fdf5ef"] ;
0 -> 1 [labeldistance=2.5, labelangle=45, headlabel="True"] ;
5 [label="gini = 0.492\nsamples = 470\nvalue = [[3, 115, 16, 217, 119]\n[1, 291, 66, 38, 74]\n[2, 149, 4, 271, 44]\n...\n[0, 121, 30, 195, 124]\n[0, 0, 0, 0, 470]\n[2, 20, 0, 33, 415]]", fillcolor="#f9e0ce"] ;
1 -> 5 ;
6 [label="ОБ <= -0.236\ngini = 0.537\nsamples = 8770\nvalue = [[16, 4485, 533, 2472, 1264]\n[263, 5463, 1685, 525, 834]\n[126, 5598, 482, 1965, 599]\n...\n[12, 4807, 396, 2307, 1248]\n[9, 127, 39, 36, 8559]\n[13, 1746, 20, 5799, 1192]]", fillcolor="#fcf3eb"] ;
1 -> 6 ;
7 [label="НФ <= 0.032\ngini = 0.52\nsamples = 2178\nvalue = [[7, 1272, 110, 414, 375]\n[44, 1428, 256, 139, 311]\n[28, 1390, 71, 387, 302]\n...\n[6, 1239, 77, 518, 338]\n[2, 18, 9, 0, 2149]\n[5, 379, 0, 1409, 385]]", fillcolor="#fbebe0"] ;
6 -> 7 ;
21 [label="Екогрупа <= -0.142\ngini = 0.512\nsamples = 910\nvalue = [[1, 529, 39, 209, 132]\n[16, 640, 68, 51, 135]\n[8, 543, 26, 169, 164]\n...\n[2, 520, 16, 287, 85]\n[0, 3, 0, 0, 907]\n[3, 113, 0, 671, 123]]", fillcolor="#fae8db"] ;
7 -> 21 ;
25 [label="gini = 0.435\nsamples = 325\nvalue = [[1, 250, 9, 31, 34]\n[1, 277, 17, 9, 21]\n[1, 272, 8, 32, 12]\n...\n[2, 231, 7, 42, 43]\n[0, 3, 0, 0, 322]\n[3, 16, 0, 224, 82]]", fillcolor="#f3c7a7"] ;
21 -> 25 ;
26 [label="gini = 0.517\nsamples = 585\nvalue = [[0, 279, 30, 178, 98]\n[15, 363, 51, 42, 114]\n[7, 271, 18, 137, 152]\n...\n[0, 289, 9, 245, 42]\n[0, 0, 0, 0, 585]\n[0, 97, 0, 447, 41]]", fillcolor="#fbeade"] ;
21 -> 26 ;
22 [label="gini = 0.505\nsamples = 1268\nvalue = [[6, 743, 71, 205, 243]\n[28, 788, 188, 88, 176]\n[20, 847, 45, 218, 138]\n...\n[4, 719, 61, 231, 253]\n[2, 15, 9, 0, 1242]\n[2, 266, 0, 738, 262]]", fillcolor="#fae5d6"] ;
7 -> 22 ;
8 [label="Topic <= -1.596\ngini = 0.532\nsamples = 6592\nvalue = [[9, 3213, 423, 2058, 889]\n[219, 4035, 1429, 386, 523]\n[98, 4208, 411, 1578, 297]\n...\n[6, 3568, 319, 1789, 910]\n[7, 109, 30, 36, 6410]\n[8, 1367, 20, 4390, 807]]", fillcolor="#fcf1e8"] ;
6 -> 8 ;
9 [label="gini = 0.462\nsamples = 333\nvalue = [[2, 88, 59, 161, 23]\n[4, 249, 60, 10, 10]\n[0, 82, 65, 184, 2]\n...\n[0, 81, 78, 131, 43]\n[0, 23, 1, 17, 292]\n[0, 20, 0, 232, 81]]", fillcolor="#f6d3b9"] ;
8 -> 9 ;
10 [label="НФ <= 0.573\ngini = 0.526\nsamples = 6259\nvalue = [[7, 3125, 364, 1897, 866]\n[215, 3786, 1369, 376, 513]\n[98, 4126, 346, 1394, 295]\n...\n[6, 3487, 241, 1658, 867]\n[7, 86, 29, 19, 6118]\n[8, 1347, 20, 4158, 726]]", fillcolor="#fceee5"] ;
8 -> 10 ;
15 [label="gini = 0.518\nsamples = 4228\nvalue = [[2, 2010, 204, 1399, 613]\n[112, 2683, 946, 230, 257]\n[48, 2763, 227, 967, 223]\n...\n[5, 2468, 173, 1195, 387]\n[4, 28, 15, 11, 4170]\n[5, 957, 13, 2848, 405]]", fillcolor="#fbeadf"] ;
10 -> 15 ;
16 [label="gini = 0.529\nsamples = 2031\nvalue = [[5, 1115, 160, 498, 253]\n[103, 1103, 423, 146, 256]\n[50, 1363, 119, 427, 72]\n...\n[1, 1019, 68, 463, 480]\n[3, 58, 14, 8, 1948]\n[3, 390, 7, 1310, 321]]", fillcolor="#fcefe6"] ;
10 -> 16 ;
2 [label="НФ <= -0.149\ngini = 0.527\nsamples = 2810\nvalue = [[4, 541, 154, 1721, 390]\n[49, 1555, 685, 269, 252]\n[23, 822, 104, 1813, 48]\n...\n[0, 720, 385, 1434, 271]\n[0, 20, 28, 8, 2754]\n[1, 203, 10, 1949, 647]]", fillcolor="#fceee5"] ;
0 -> 2 [labeldistance=2.5, labelangle=-45, headlabel="False"] ;
3 [label="Topic <= 1.016\ngini = 0.463\nsamples = 1882\nvalue = [[1, 159, 62, 1412, 248]\n[23, 999, 468, 222, 170]\n[2, 347, 46, 1464, 23]\n...\n[0, 354, 218, 1205, 105]\n[0, 3, 2, 1, 1876]\n[1, 64, 2, 1367, 448]]", fillcolor="#f6d3ba"] ;
2 -> 3 ;
11 [label="Воля <= -0.217\ngini = 0.351\nsamples = 571\nvalue = [[0, 2, 26, 497, 46]\n[5, 398, 11, 98, 59]\n[0, 44, 11, 516, 0]\n...\n[0, 42, 134, 351, 44]\n[0, 0, 0, 0, 571]\n[0, 1, 0, 416, 154]]", fillcolor="#eca36e"] ;
3 -> 11 ;
23 [label="gini = 0.271\nsamples = 198\nvalue = [[0, 1, 24, 172, 1]\n[2, 102, 2, 54, 38]\n[0, 0, 3, 195, 0]\n...\n[0, 9, 11, 134, 44]\n[0, 0, 0, 0, 198]\n[0, 0, 0, 46, 152]]", fillcolor="#e58139"] ;
11 -> 23 ;
24 [label="gini = 0.324\nsamples = 373\nvalue = [[0, 1, 2, 325, 45]\n[3, 296, 9, 44, 21]\n[0, 44, 8, 321, 0]\n...\n[0, 33, 123, 217, 0]\n[0, 0, 0, 0, 373]\n[0, 1, 0, 370, 2]]", fillcolor="#ea985d"] ;
11 -> 24 ;
12 [label="Topic <= 1.421\ngini = 0.472\nsamples = 1311\nvalue = [[1, 157, 36, 915, 202]\n[18, 601, 457, 124, 111]\n[2, 303, 35, 948, 23]\n...\n[0, 312, 84, 854, 61]\n[0, 3, 2, 1, 1305]\n[1, 63, 2, 951, 294]]", fillcolor="#f7d7c0"] ;
3 -> 12 ;
13 [label="gini = 0.532\nsamples = 218\nvalue = [[0, 90, 11, 69, 48]\n[7, 132, 40, 9, 30]\n[1, 131, 6, 66, 14]\n...\n[0, 105, 8, 80, 25]\n[0, 2, 2, 0, 214]\n[1, 36, 0, 123, 58]]", fillcolor="#fcf0e8"] ;
12 -> 13 ;
14 [label="Topic <= 1.439\ngini = 0.431\nsamples = 1093\nvalue = [[1, 67, 25, 846, 154]\n[11, 469, 417, 115, 81]\n[1, 172, 29, 882, 9]\n...\n[0, 207, 76, 774, 36]\n[0, 1, 0, 1, 1091]\n[0, 27, 2, 828, 236]]", fillcolor="#f3c5a4"] ;
12 -> 14 ;
19 [label="gini = 0.34\nsamples = 446\nvalue = [[0, 17, 0, 362, 67]\n[6, 94, 232, 86, 28]\n[0, 37, 0, 409, 0]\n...\n[0, 54, 26, 352, 14]\n[0, 0, 0, 0, 446]\n[0, 2, 0, 391, 53]]", fillcolor="#eb9e67"] ;
14 -> 19 ;
20 [label="gini = 0.446\nsamples = 647\nvalue = [[1, 50, 25, 484, 87]\n[5, 375, 185, 29, 53]\n[1, 135, 29, 473, 9]\n...\n[0, 153, 50, 422, 22]\n[0, 1, 0, 1, 645]\n[0, 25, 2, 437, 183]]", fillcolor="#f4ccaf"] ;
14 -> 20 ;
4 [label="Topic <= 1.016\ngini = 0.566\nsamples = 928\nvalue = [[3, 382, 92, 309, 142]\n[26, 556, 217, 47, 82]\n[21, 475, 58, 349, 25]\n...\n[0, 366, 167, 229, 166]\n[0, 17, 26, 7, 878]\n[0, 139, 8, 582, 199]]", fillcolor="#ffffff"] ;
2 -> 4 ;
17 [label="gini = 0.275\nsamples = 97\nvalue = [[0, 23, 25, 45, 4]\n[1, 78, 2, 5, 11]\n[0, 5, 0, 92, 0]\n...\n[0, 7, 68, 22, 0]\n[0, 0, 0, 0, 97]\n[0, 0, 0, 32, 65]]", fillcolor="#e5823b"] ;
4 -> 17 ;
18 [label="gini = 0.562\nsamples = 831\nvalue = [[3, 359, 67, 264, 138]\n[25, 478, 215, 42, 71]\n[21, 470, 58, 257, 25]\n...\n[0, 359, 99, 207, 166]\n[0, 17, 26, 7, 781]\n[0, 139, 8, 550, 134]]", fillcolor="#fffdfd"] ;
4 -> 18 ;
}