digraph Tree {
node [shape=box, style="filled", color="black"] ;
0 [label="Topic <= 0.998\ngini = 0.558\nsamples = 12050\nvalue = [[30, 5162, 697, 4442, 1719]\n[320, 7297, 2441, 830, 1162]\n[141, 6553, 602, 4070, 684]\n...\n[15, 5626, 856, 3945, 1608]\n[11, 148, 62, 46, 11783]\n[17, 1989, 30, 7744, 2270]]", fillcolor="#fffdfc"] ;
1 [label="Екогрупа <= -2.261\ngini = 0.544\nsamples = 9263\nvalue = [[26, 4626, 548, 2712, 1351]\n[274, 5765, 1741, 576, 907]\n[122, 5749, 487, 2271, 634]\n...\n[15, 4930, 457, 2504, 1357]\n[9, 129, 36, 36, 9053]\n[16, 1785, 20, 5816, 1626]]", fillcolor="#fdf7f2"] ;
0 -> 1 [labeldistance=2.5, labelangle=45, headlabel="True"] ;
5 [label="gini = 0.491\nsamples = 478\nvalue = [[4, 111, 14, 222, 127]\n[1, 298, 69, 39, 71]\n[2, 148, 7, 270, 51]\n...\n[0, 124, 27, 203, 124]\n[0, 0, 0, 0, 478]\n[4, 22, 0, 35, 417]]", fillcolor="#f9e0ce"] ;
1 -> 5 ;
6 [label="ОБ <= -0.236\ngini = 0.538\nsamples = 8785\nvalue = [[22, 4515, 534, 2490, 1224]\n[273, 5467, 1672, 537, 836]\n[120, 5601, 480, 2001, 583]\n...\n[15, 4806, 430, 2301, 1233]\n[9, 129, 36, 36, 8575]\n[12, 1763, 20, 5781, 1209]]", fillcolor="#fdf4ee"] ;
1 -> 6 ;
7 [label="НФ <= 0.032\ngini = 0.519\nsamples = 2090\nvalue = [[11, 1243, 103, 383, 350]\n[39, 1381, 233, 142, 295]\n[25, 1337, 67, 378, 283]\n...\n[9, 1176, 77, 500, 328]\n[2, 19, 9, 1, 2059]\n[6, 350, 1, 1348, 385]]", fillcolor="#fbece1"] ;
6 -> 7 ;
21 [label="gini = 0.508\nsamples = 855\nvalue = [[0, 514, 32, 184, 125]\n[11, 609, 61, 53, 121]\n[5, 529, 20, 152, 149]\n...\n[2, 489, 19, 270, 75]\n[0, 3, 0, 0, 852]\n[2, 105, 0, 628, 120]]", fillcolor="#fae7da"] ;
7 -> 21 ;
22 [label="gini = 0.507\nsamples = 1235\nvalue = [[11, 729, 71, 199, 225]\n[28, 772, 172, 89, 174]\n[20, 808, 47, 226, 134]\n...\n[7, 687, 58, 230, 253]\n[2, 16, 9, 1, 1207]\n[4, 245, 1, 720, 265]]", fillcolor="#fae7d9"] ;
7 -> 22 ;
8 [label="Topic <= -1.596\ngini = 0.533\nsamples = 6695\nvalue = [[11, 3272, 431, 2107, 874]\n[234, 4086, 1439, 395, 541]\n[95, 4264, 413, 1623, 300]\n...\n[6, 3630, 353, 1801, 905]\n[7, 110, 27, 35, 6516]\n[6, 1413, 19, 4433, 824]]", fillcolor="#fcf2eb"] ;
6 -> 8 ;
9 [label="gini = 0.467\nsamples = 331\nvalue = [[2, 97, 53, 155, 24]\n[6, 243, 63, 10, 9]\n[0, 87, 60, 182, 2]\n...\n[1, 76, 86, 123, 45]\n[0, 24, 1, 17, 289]\n[0, 25, 0, 229, 77]]", fillcolor="#f6d6be"] ;
8 -> 9 ;
10 [label="НФ <= 0.753\ngini = 0.528\nsamples = 6364\nvalue = [[9, 3175, 378, 1952, 850]\n[228, 3843, 1376, 385, 532]\n[95, 4177, 353, 1441, 298]\n...\n[5, 3554, 267, 1678, 860]\n[7, 86, 26, 18, 6227]\n[6, 1388, 19, 4204, 747]]", fillcolor="#fcf0e7"] ;
8 -> 10 ;
15 [label="Екогрупа <= 0.281\ngini = 0.521\nsamples = 4875\nvalue = [[4, 2357, 254, 1601, 659]\n[140, 3053, 1075, 270, 337]\n[58, 3181, 258, 1140, 238]\n...\n[5, 2836, 213, 1358, 463]\n[4, 36, 18, 13, 4804]\n[4, 1094, 16, 3269, 492]]", fillcolor="#fbede2"] ;
10 -> 15 ;
25 [label="gini = 0.516\nsamples = 1858\nvalue = [[2, 947, 119, 498, 292]\n[66, 1229, 363, 70, 130]\n[19, 1358, 96, 333, 52]\n...\n[4, 1062, 55, 497, 240]\n[2, 27, 3, 5, 1821]\n[0, 285, 9, 1198, 366]]", fillcolor="#fbebdf"] ;
15 -> 25 ;
26 [label="gini = 0.516\nsamples = 3017\nvalue = [[2, 1410, 135, 1103, 367]\n[74, 1824, 712, 200, 207]\n[39, 1823, 162, 807, 186]\n...\n[1, 1774, 158, 861, 223]\n[2, 9, 15, 8, 2983]\n[4, 809, 7, 2071, 126]]", fillcolor="#fbebdf"] ;
15 -> 26 ;
16 [label="gini = 0.53\nsamples = 1489\nvalue = [[5, 818, 124, 351, 191]\n[88, 790, 301, 115, 195]\n[37, 996, 95, 301, 60]\n...\n[0, 718, 54, 320, 397]\n[3, 50, 8, 5, 1423]\n[2, 294, 3, 935, 255]]", fillcolor="#fcf1e9"] ;
10 -> 16 ;
2 [label="НФ <= -0.149\ngini = 0.525\nsamples = 2787\nvalue = [[4, 536, 149, 1730, 368]\n[46, 1532, 700, 254, 255]\n[19, 804, 115, 1799, 50]\n...\n[0, 696, 399, 1441, 251]\n[2, 19, 26, 10, 2730]\n[1, 204, 10, 1928, 644]]", fillcolor="#fcefe5"] ;
0 -> 2 [labeldistance=2.5, labelangle=-45, headlabel="False"] ;
3 [label="Topic <= 1.016\ngini = 0.459\nsamples = 1864\nvalue = [[1, 147, 64, 1425, 227]\n[19, 980, 480, 211, 174]\n[1, 322, 50, 1468, 23]\n...\n[0, 325, 237, 1206, 96]\n[0, 1, 1, 0, 1862]\n[1, 60, 3, 1360, 440]]", fillcolor="#f6d2b9"] ;
2 -> 3 ;
11 [label="Воля <= -0.217\ngini = 0.349\nsamples = 558\nvalue = [[0, 1, 30, 487, 40]\n[4, 390, 10, 98, 56]\n[0, 42, 7, 509, 0]\n...\n[0, 41, 134, 343, 40]\n[0, 0, 0, 0, 558]\n[0, 0, 0, 406, 152]]", fillcolor="#eca36f"] ;
3 -> 11 ;
23 [label="gini = 0.27\nsamples = 192\nvalue = [[0, 1, 27, 163, 1]\n[1, 102, 2, 52, 35]\n[0, 0, 1, 191, 0]\n...\n[0, 7, 8, 138, 39]\n[0, 0, 0, 0, 192]\n[0, 0, 0, 42, 150]]", fillcolor="#e58139"] ;
11 -> 23 ;
24 [label="gini = 0.326\nsamples = 366\nvalue = [[0, 0, 3, 324, 39]\n[3, 288, 8, 46, 21]\n[0, 42, 6, 318, 0]\n...\n[0, 34, 126, 205, 1]\n[0, 0, 0, 0, 366]\n[0, 0, 0, 364, 2]]", fillcolor="#ea995f"] ;
11 -> 24 ;
12 [label="Topic <= 1.421\ngini = 0.467\nsamples = 1306\nvalue = [[1, 146, 34, 938, 187]\n[15, 590, 470, 113, 118]\n[1, 280, 43, 959, 23]\n...\n[0, 284, 103, 863, 56]\n[0, 1, 1, 0, 1304]\n[1, 60, 3, 954, 288]]", fillcolor="#f6d6be"] ;
3 -> 12 ;
17 [label="gini = 0.531\nsamples = 210\nvalue = [[0, 82, 10, 77, 41]\n[6, 123, 44, 6, 31]\n[0, 121, 6, 68, 15]\n...\n[0, 96, 8, 85, 21]\n[0, 0, 1, 0, 209]\n[1, 38, 0, 118, 53]]", fillcolor="#fcf1e9"] ;
12 -> 17 ;
18 [label="Topic <= 1.439\ngini = 0.427\nsamples = 1096\nvalue = [[1, 64, 24, 861, 146]\n[9, 467, 426, 107, 87]\n[1, 159, 37, 891, 8]\n...\n[0, 188, 95, 778, 35]\n[0, 1, 0, 0, 1095]\n[0, 22, 3, 836, 235]]", fillcolor="#f3c5a3"] ;
12 -> 18 ;
19 [label="gini = 0.334\nsamples = 433\nvalue = [[0, 13, 0, 360, 60]\n[4, 91, 232, 75, 31]\n[0, 32, 0, 401, 0]\n...\n[0, 47, 28, 344, 14]\n[0, 0, 0, 0, 433]\n[0, 3, 0, 373, 57]]", fillcolor="#eb9d64"] ;
18 -> 19 ;
20 [label="gini = 0.442\nsamples = 663\nvalue = [[1, 51, 24, 501, 86]\n[5, 376, 194, 32, 56]\n[1, 127, 37, 490, 8]\n...\n[0, 141, 67, 434, 21]\n[0, 1, 0, 0, 662]\n[0, 19, 3, 463, 178]]", fillcolor="#f4cbad"] ;
18 -> 20 ;
4 [label="Topic <= 1.016\ngini = 0.563\nsamples = 923\nvalue = [[3, 389, 85, 305, 141]\n[27, 552, 220, 43, 81]\n[18, 482, 65, 331, 27]\n...\n[0, 371, 162, 235, 155]\n[2, 18, 25, 10, 868]\n[0, 144, 7, 568, 204]]", fillcolor="#ffffff"] ;
2 -> 4 ;
13 [label="gini = 0.281\nsamples = 101\nvalue = [[0, 24, 22, 51, 4]\n[0, 81, 2, 7, 11]\n[0, 5, 0, 96, 0]\n...\n[0, 6, 73, 22, 0]\n[0, 0, 0, 0, 101]\n[0, 0, 0, 30, 71]]", fillcolor="#e68640"] ;
4 -> 13 ;
14 [label="gini = 0.558\nsamples = 822\nvalue = [[3, 365, 63, 254, 137]\n[27, 471, 218, 36, 70]\n[18, 477, 65, 235, 27]\n...\n[0, 365, 89, 213, 155]\n[2, 18, 25, 10, 767]\n[0, 144, 7, 538, 133]]", fillcolor="#fffdfc"] ;
4 -> 14 ;
}