digraph Tree {
node [shape=box, style="filled", color="black"] ;
0 [label="Topic <= 0.998\ngini = 0.558\nsamples = 12051\nvalue = [[29, 5153, 718, 4383, 1768]\n[307, 7350, 2407, 827, 1160]\n[152, 6590, 568, 4033, 708]\n...\n[16, 5638, 831, 3948, 1618]\n[11, 134, 56, 45, 11805]\n[16, 1990, 26, 7757, 2262]]", fillcolor="#fefbf8"] ;
1 [label="ОБ <= -0.236\ngini = 0.543\nsamples = 9251\nvalue = [[26, 4602, 561, 2671, 1391]\n[253, 5799, 1738, 556, 905]\n[130, 5765, 466, 2237, 653]\n...\n[16, 4918, 440, 2515, 1362]\n[9, 116, 32, 34, 9060]\n[15, 1773, 20, 5848, 1595]]", fillcolor="#fcf0e7"] ;
0 -> 1 [labeldistance=2.5, labelangle=45, headlabel="True"] ;
5 [label="Позафракційні <= -2.179\ngini = 0.536\nsamples = 2501\nvalue = [[13, 1370, 110, 552, 456]\n[40, 1643, 297, 181, 340]\n[34, 1493, 74, 555, 345]\n...\n[8, 1298, 97, 657, 441]\n[2, 18, 5, 1, 2475]\n[10, 385, 1, 1436, 669]]", fillcolor="#fbebdf"] ;
1 -> 5 ;
7 [label="gini = 0.388\nsamples = 191\nvalue = [[1, 17, 3, 106, 64]\n[0, 96, 35, 37, 23]\n[1, 28, 6, 120, 36]\n...\n[0, 17, 5, 94, 75]\n[0, 0, 0, 0, 191]\n[0, 3, 0, 36, 152]]", fillcolor="#e58139"] ;
5 -> 7 ;
8 [label="gini = 0.523\nsamples = 2310\nvalue = [[12, 1353, 107, 446, 392]\n[40, 1547, 262, 144, 317]\n[33, 1465, 68, 435, 309]\n...\n[8, 1281, 92, 563, 366]\n[2, 18, 5, 1, 2284]\n[10, 382, 1, 1400, 517]]", fillcolor="#f9e1d1"] ;
5 -> 8 ;
6 [label="Topic <= -1.596\ngini = 0.534\nsamples = 6750\nvalue = [[13, 3232, 451, 2119, 935]\n[213, 4156, 1441, 375, 565]\n[96, 4272, 392, 1682, 308]\n...\n[8, 3620, 343, 1858, 921]\n[7, 98, 27, 33, 6585]\n[5, 1388, 19, 4412, 926]]", fillcolor="#fbe9dd"] ;
1 -> 6 ;
9 [label="gini = 0.467\nsamples = 322\nvalue = [[3, 93, 58, 149, 19]\n[5, 237, 58, 9, 13]\n[0, 85, 54, 181, 2]\n...\n[0, 73, 77, 134, 38]\n[0, 18, 1, 16, 287]\n[0, 22, 0, 222, 78]]", fillcolor="#f1ba92"] ;
6 -> 9 ;
10 [label="gini = 0.529\nsamples = 6428\nvalue = [[10, 3139, 393, 1970, 916]\n[208, 3919, 1383, 366, 552]\n[96, 4187, 338, 1501, 306]\n...\n[8, 3547, 266, 1724, 883]\n[7, 80, 26, 17, 6298]\n[5, 1366, 19, 4190, 848]]", fillcolor="#fae6d8"] ;
6 -> 10 ;
2 [label="НФ <= -0.149\ngini = 0.528\nsamples = 2800\nvalue = [[3, 551, 157, 1712, 377]\n[54, 1551, 669, 271, 255]\n[22, 825, 102, 1796, 55]\n...\n[0, 720, 391, 1433, 256]\n[2, 18, 24, 11, 2745]\n[1, 217, 6, 1909, 667]]", fillcolor="#fae5d6"] ;
0 -> 2 [labeldistance=2.5, labelangle=-45, headlabel="False"] ;
3 [label="gini = 0.463\nsamples = 1869\nvalue = [[1, 158, 62, 1415, 233]\n[22, 994, 455, 223, 175]\n[1, 339, 51, 1451, 27]\n...\n[0, 338, 233, 1197, 101]\n[0, 3, 2, 1, 1863]\n[1, 64, 1, 1336, 467]]", fillcolor="#f0b78d"] ;
2 -> 3 ;
4 [label="gini = 0.564\nsamples = 931\nvalue = [[2, 393, 95, 297, 144]\n[32, 557, 214, 48, 80]\n[21, 486, 51, 345, 28]\n...\n[0, 382, 158, 236, 155]\n[2, 15, 22, 10, 882]\n[0, 153, 5, 573, 200]]", fillcolor="#ffffff"] ;
2 -> 4 ;
}