digraph Tree {
node [shape=box, style="filled", color="black"] ;
0 [label="Topic <= 0.998\ngini = 0.558\nsamples = 12051\nvalue = [[29, 5150, 701, 4436, 1735]\n[326, 7300, 2425, 833, 1167]\n[148, 6549, 590, 4075, 689]\n...\n[17, 5618, 869, 3946, 1601]\n[8, 143, 58, 41, 11801]\n[19, 2010, 23, 7768, 2231]]", fillcolor="#fffdfc"] ;
1 [label="ОБ <= -0.236\ngini = 0.543\nsamples = 9246\nvalue = [[25, 4621, 553, 2697, 1350]\n[276, 5764, 1738, 562, 906]\n[131, 5733, 486, 2256, 640]\n...\n[17, 4908, 455, 2513, 1353]\n[7, 124, 31, 33, 9051]\n[18, 1791, 15, 5841, 1581]]", fillcolor="#fdf6f1"] ;
0 -> 1 [labeldistance=2.5, labelangle=45, headlabel="True"] ;
5 [label="Екогрупа <= -2.473\ngini = 0.535\nsamples = 2493\nvalue = [[15, 1360, 105, 559, 454]\n[46, 1638, 302, 168, 339]\n[33, 1483, 84, 550, 343]\n...\n[8, 1285, 107, 648, 445]\n[2, 16, 7, 1, 2467]\n[12, 383, 1, 1430, 667]]", fillcolor="#fdf3ec"] ;
1 -> 5 ;
7 [label="gini = 0.465\nsamples = 288\nvalue = [[2, 50, 1, 144, 91]\n[0, 180, 45, 30, 33]\n[1, 73, 5, 164, 45]\n...\n[0, 45, 21, 132, 90]\n[0, 0, 0, 0, 288]\n[5, 14, 0, 16, 253]]", fillcolor="#f6d5bd"] ;
5 -> 7 ;
8 [label="НФ <= 0.032\ngini = 0.519\nsamples = 2205\nvalue = [[13, 1310, 104, 415, 363]\n[46, 1458, 257, 138, 306]\n[32, 1410, 79, 386, 298]\n...\n[8, 1240, 86, 516, 355]\n[2, 16, 7, 1, 2179]\n[7, 369, 1, 1414, 414]]", fillcolor="#fbece1"] ;
5 -> 8 ;
23 [label="gini = 0.51\nsamples = 913\nvalue = [[3, 536, 32, 217, 125]\n[13, 647, 72, 57, 124]\n[11, 554, 25, 165, 158]\n...\n[1, 529, 19, 278, 86]\n[0, 1, 0, 0, 912]\n[3, 109, 0, 661, 140]]", fillcolor="#fae8db"] ;
8 -> 23 ;
24 [label="gini = 0.506\nsamples = 1292\nvalue = [[10, 774, 72, 198, 238]\n[33, 811, 185, 81, 182]\n[21, 856, 54, 221, 140]\n...\n[7, 711, 67, 238, 269]\n[2, 15, 7, 1, 1267]\n[4, 260, 1, 753, 274]]", fillcolor="#fae6d8"] ;
8 -> 24 ;
6 [label="Topic <= -1.596\ngini = 0.535\nsamples = 6753\nvalue = [[10, 3261, 448, 2138, 896]\n[230, 4126, 1436, 394, 567]\n[98, 4250, 402, 1706, 297]\n...\n[9, 3623, 348, 1865, 908]\n[5, 108, 24, 32, 6584]\n[6, 1408, 14, 4411, 914]]", fillcolor="#fdf3ec"] ;
1 -> 6 ;
9 [label="gini = 0.469\nsamples = 333\nvalue = [[1, 97, 55, 156, 24]\n[4, 243, 61, 11, 14]\n[0, 87, 65, 179, 2]\n...\n[1, 78, 82, 127, 45]\n[0, 24, 1, 16, 292]\n[0, 25, 0, 233, 75]]", fillcolor="#f7d7bf"] ;
6 -> 9 ;
10 [label="НФ <= 0.573\ngini = 0.53\nsamples = 6420\nvalue = [[9, 3164, 393, 1982, 872]\n[226, 3883, 1375, 383, 553]\n[98, 4163, 337, 1527, 295]\n...\n[8, 3545, 266, 1738, 863]\n[5, 84, 23, 16, 6292]\n[6, 1383, 14, 4178, 839]]", fillcolor="#fcf1e9"] ;
6 -> 10 ;
13 [label="Екогрупа <= -1.414\ngini = 0.522\nsamples = 4407\nvalue = [[4, 2037, 233, 1494, 639]\n[128, 2778, 973, 242, 286]\n[51, 2815, 212, 1108, 221]\n...\n[7, 2552, 193, 1260, 395]\n[2, 28, 11, 10, 4356]\n[3, 984, 9, 2897, 514]]", fillcolor="#fbede3"] ;
10 -> 13 ;
21 [label="gini = 0.487\nsamples = 224\nvalue = [[0, 67, 11, 109, 37]\n[4, 140, 39, 3, 38]\n[0, 87, 5, 132, 0]\n...\n[0, 89, 12, 95, 28]\n[0, 2, 0, 0, 222]\n[0, 16, 0, 64, 144]]", fillcolor="#f8decb"] ;
13 -> 21 ;
22 [label="gini = 0.518\nsamples = 4183\nvalue = [[4, 1970, 222, 1385, 602]\n[124, 2638, 934, 239, 248]\n[51, 2728, 207, 976, 221]\n...\n[7, 2463, 181, 1165, 367]\n[2, 26, 11, 10, 4134]\n[3, 968, 9, 2833, 370]]", fillcolor="#fbebe0"] ;
13 -> 22 ;
14 [label="gini = 0.529\nsamples = 2013\nvalue = [[5, 1127, 160, 488, 233]\n[98, 1105, 402, 141, 267]\n[47, 1348, 125, 419, 74]\n...\n[1, 993, 73, 478, 468]\n[3, 56, 12, 6, 1936]\n[3, 399, 5, 1281, 325]]", fillcolor="#fcf0e8"] ;
10 -> 14 ;
2 [label="НФ <= -0.149\ngini = 0.524\nsamples = 2805\nvalue = [[4, 529, 148, 1739, 385]\n[50, 1536, 687, 271, 261]\n[17, 816, 104, 1819, 49]\n...\n[0, 710, 414, 1433, 248]\n[1, 19, 27, 8, 2750]\n[1, 219, 8, 1927, 650]]", fillcolor="#fceee5"] ;
0 -> 2 [labeldistance=2.5, labelangle=-45, headlabel="False"] ;
3 [label="Topic <= 1.016\ngini = 0.46\nsamples = 1881\nvalue = [[1, 147, 57, 1431, 245]\n[24, 981, 474, 222, 180]\n[1, 329, 46, 1479, 26]\n...\n[0, 340, 246, 1203, 92]\n[0, 2, 2, 1, 1876]\n[1, 66, 2, 1366, 446]]", fillcolor="#f6d2b9"] ;
2 -> 3 ;
11 [label="Екогрупа <= -0.566\ngini = 0.352\nsamples = 571\nvalue = [[0, 2, 25, 497, 47]\n[5, 394, 13, 102, 57]\n[0, 44, 9, 518, 0]\n...\n[0, 43, 141, 347, 40]\n[0, 0, 0, 0, 571]\n[0, 1, 0, 423, 147]]", fillcolor="#eca470"] ;
3 -> 11 ;
25 [label="gini = 0.271\nsamples = 190\nvalue = [[0, 1, 23, 165, 1]\n[2, 101, 2, 51, 34]\n[0, 0, 3, 187, 0]\n...\n[0, 9, 6, 135, 40]\n[0, 0, 0, 0, 190]\n[0, 0, 0, 43, 147]]", fillcolor="#e58139"] ;
11 -> 25 ;
26 [label="gini = 0.327\nsamples = 381\nvalue = [[0, 1, 2, 332, 46]\n[3, 293, 11, 51, 23]\n[0, 44, 6, 331, 0]\n...\n[0, 34, 135, 212, 0]\n[0, 0, 0, 0, 381]\n[0, 1, 0, 380, 0]]", fillcolor="#ea995f"] ;
11 -> 26 ;
12 [label="Topic <= 1.421\ngini = 0.468\nsamples = 1310\nvalue = [[1, 145, 32, 934, 198]\n[19, 587, 461, 120, 123]\n[1, 285, 37, 961, 26]\n...\n[0, 297, 105, 856, 52]\n[0, 2, 2, 1, 1305]\n[1, 65, 2, 943, 299]]", fillcolor="#f6d6be"] ;
3 -> 12 ;
17 [label="gini = 0.532\nsamples = 218\nvalue = [[0, 84, 9, 80, 45]\n[7, 124, 41, 8, 38]\n[1, 127, 6, 69, 15]\n...\n[0, 102, 10, 85, 21]\n[0, 2, 2, 0, 214]\n[1, 39, 0, 113, 65]]", fillcolor="#fcf1ea"] ;
12 -> 17 ;
18 [label="Topic <= 1.439\ngini = 0.427\nsamples = 1092\nvalue = [[1, 61, 23, 854, 153]\n[12, 463, 420, 112, 85]\n[0, 158, 31, 892, 11]\n...\n[0, 195, 95, 771, 31]\n[0, 0, 0, 1, 1091]\n[0, 26, 2, 830, 234]]", fillcolor="#f3c4a2"] ;
12 -> 18 ;
19 [label="gini = 0.339\nsamples = 439\nvalue = [[0, 15, 0, 356, 68]\n[7, 97, 228, 81, 26]\n[0, 35, 0, 404, 0]\n...\n[0, 49, 29, 348, 13]\n[0, 0, 0, 0, 439]\n[0, 4, 0, 378, 57]]", fillcolor="#eb9e67"] ;
18 -> 19 ;
20 [label="gini = 0.44\nsamples = 653\nvalue = [[1, 46, 23, 498, 85]\n[5, 366, 192, 31, 59]\n[0, 123, 31, 488, 11]\n...\n[0, 146, 66, 423, 18]\n[0, 0, 0, 1, 652]\n[0, 22, 2, 452, 177]]", fillcolor="#f4caac"] ;
18 -> 20 ;
4 [label="Topic <= 1.016\ngini = 0.563\nsamples = 924\nvalue = [[3, 382, 91, 308, 140]\n[26, 555, 213, 49, 81]\n[16, 487, 58, 340, 23]\n...\n[0, 370, 168, 230, 156]\n[1, 17, 25, 7, 874]\n[0, 153, 6, 561, 204]]", fillcolor="#ffffff"] ;
2 -> 4 ;
15 [label="gini = 0.281\nsamples = 107\nvalue = [[0, 25, 26, 52, 4]\n[1, 82, 2, 8, 14]\n[0, 6, 0, 101, 0]\n...\n[0, 8, 77, 22, 0]\n[0, 0, 0, 0, 107]\n[0, 0, 0, 38, 69]]", fillcolor="#e68540"] ;
4 -> 15 ;
16 [label="gini = 0.558\nsamples = 817\nvalue = [[3, 357, 65, 256, 136]\n[25, 473, 211, 41, 67]\n[16, 481, 58, 239, 23]\n...\n[0, 362, 91, 208, 156]\n[1, 17, 25, 7, 767]\n[0, 153, 6, 523, 135]]", fillcolor="#fffdfc"] ;
4 -> 16 ;
}