digraph Tree {
node [shape=box, style="filled", color="black"] ;
0 [label="Topic <= 0.998\ngini = 0.558\nsamples = 12051\nvalue = [[31, 5139, 723, 4414, 1744]\n[317, 7308, 2439, 825, 1162]\n[153, 6581, 588, 4037, 692]\n...\n[14, 5643, 833, 3937, 1624]\n[9, 149, 59, 44, 11790]\n[19, 1980, 30, 7759, 2263]]", fillcolor="#fefcfb"] ;
1 [label="Екогрупа <= -2.261\ngini = 0.542\nsamples = 9252\nvalue = [[28, 4600, 565, 2703, 1356]\n[267, 5765, 1749, 559, 912]\n[129, 5766, 483, 2232, 642]\n...\n[14, 4930, 442, 2500, 1366]\n[8, 130, 34, 35, 9045]\n[18, 1775, 21, 5828, 1610]]", fillcolor="#fdf6f0"] ;
0 -> 1 [labeldistance=2.5, labelangle=45, headlabel="True"] ;
5 [label="gini = 0.493\nsamples = 473\nvalue = [[4, 112, 16, 225, 116]\n[0, 298, 67, 33, 75]\n[2, 147, 7, 267, 50]\n...\n[0, 120, 32, 198, 123]\n[0, 0, 0, 0, 473]\n[5, 21, 0, 30, 417]]", fillcolor="#f9e1cf"] ;
1 -> 5 ;
6 [label="ОБ <= -0.236\ngini = 0.536\nsamples = 8779\nvalue = [[24, 4488, 549, 2478, 1240]\n[267, 5467, 1682, 526, 837]\n[127, 5619, 476, 1965, 592]\n...\n[14, 4810, 410, 2302, 1243]\n[8, 130, 34, 35, 8572]\n[13, 1754, 21, 5798, 1193]]", fillcolor="#fdf3ec"] ;
1 -> 6 ;
7 [label="НФ <= 0.032\ngini = 0.519\nsamples = 2148\nvalue = [[11, 1272, 104, 400, 361]\n[43, 1417, 256, 138, 294]\n[29, 1383, 76, 376, 284]\n...\n[6, 1215, 76, 506, 345]\n[2, 18, 6, 1, 2121]\n[6, 377, 0, 1381, 384]]", fillcolor="#fbece0"] ;
6 -> 7 ;
21 [label="Екогрупа <= -0.142\ngini = 0.51\nsamples = 894\nvalue = [[1, 523, 37, 207, 126]\n[12, 640, 66, 49, 127]\n[9, 550, 25, 164, 146]\n...\n[2, 523, 15, 269, 85]\n[0, 3, 0, 0, 891]\n[2, 108, 0, 662, 122]]", fillcolor="#fae8db"] ;
7 -> 21 ;
25 [label="gini = 0.435\nsamples = 329\nvalue = [[1, 248, 8, 37, 35]\n[0, 278, 17, 10, 24]\n[0, 281, 5, 31, 12]\n...\n[2, 236, 6, 41, 44]\n[0, 3, 0, 0, 326]\n[2, 17, 0, 231, 79]]", fillcolor="#f4c8a8"] ;
21 -> 25 ;
26 [label="gini = 0.516\nsamples = 565\nvalue = [[0, 275, 29, 170, 91]\n[12, 362, 49, 39, 103]\n[9, 269, 20, 133, 134]\n...\n[0, 287, 9, 228, 41]\n[0, 0, 0, 0, 565]\n[0, 91, 0, 431, 43]]", fillcolor="#fbebdf"] ;
21 -> 26 ;
22 [label="gini = 0.504\nsamples = 1254\nvalue = [[10, 749, 67, 193, 235]\n[31, 777, 190, 89, 167]\n[20, 833, 51, 212, 138]\n...\n[4, 692, 61, 237, 260]\n[2, 15, 6, 1, 1230]\n[4, 269, 0, 719, 262]]", fillcolor="#fae5d7"] ;
7 -> 22 ;
8 [label="Topic <= -1.596\ngini = 0.532\nsamples = 6631\nvalue = [[13, 3216, 445, 2078, 879]\n[224, 4050, 1426, 388, 543]\n[98, 4236, 400, 1589, 308]\n...\n[8, 3595, 334, 1796, 898]\n[6, 112, 28, 34, 6451]\n[7, 1377, 21, 4417, 809]]", fillcolor="#fcf1e9"] ;
6 -> 8 ;
9 [label="gini = 0.462\nsamples = 321\nvalue = [[3, 82, 59, 155, 22]\n[2, 241, 59, 10, 9]\n[0, 80, 62, 177, 2]\n...\n[1, 71, 78, 130, 41]\n[0, 20, 1, 16, 284]\n[0, 18, 0, 223, 80]]", fillcolor="#f6d3ba"] ;
8 -> 9 ;
10 [label="НФ <= 0.573\ngini = 0.526\nsamples = 6310\nvalue = [[10, 3134, 386, 1923, 857]\n[222, 3809, 1367, 378, 534]\n[98, 4156, 338, 1412, 306]\n...\n[7, 3524, 256, 1666, 857]\n[6, 92, 27, 18, 6167]\n[7, 1359, 21, 4194, 729]]", fillcolor="#fcefe6"] ;
8 -> 10 ;
13 [label="gini = 0.518\nsamples = 4282\nvalue = [[5, 2021, 227, 1417, 612]\n[122, 2717, 950, 229, 264]\n[54, 2796, 214, 983, 235]\n...\n[6, 2506, 183, 1210, 377]\n[3, 29, 16, 8, 4226]\n[5, 963, 13, 2893, 408]]", fillcolor="#fbebe0"] ;
10 -> 13 ;
14 [label="gini = 0.528\nsamples = 2028\nvalue = [[5, 1113, 159, 506, 245]\n[100, 1092, 417, 149, 270]\n[44, 1360, 124, 429, 71]\n...\n[1, 1018, 73, 456, 480]\n[3, 63, 11, 10, 1941]\n[2, 396, 8, 1301, 321]]", fillcolor="#fcf0e7"] ;
10 -> 14 ;
2 [label="НФ <= -0.149\ngini = 0.526\nsamples = 2799\nvalue = [[3, 539, 158, 1711, 388]\n[50, 1543, 690, 266, 250]\n[24, 815, 105, 1805, 50]\n...\n[0, 713, 391, 1437, 258]\n[1, 19, 25, 9, 2745]\n[1, 205, 9, 1931, 653]]", fillcolor="#fcefe6"] ;
0 -> 2 [labeldistance=2.5, labelangle=-45, headlabel="False"] ;
3 [label="Topic <= 1.016\ngini = 0.463\nsamples = 1877\nvalue = [[1, 154, 62, 1417, 243]\n[23, 991, 472, 217, 174]\n[1, 341, 46, 1464, 25]\n...\n[0, 348, 237, 1197, 95]\n[0, 3, 2, 1, 1871]\n[1, 67, 3, 1353, 453]]", fillcolor="#f6d4bb"] ;
2 -> 3 ;
11 [label="Екогрупа <= -0.566\ngini = 0.35\nsamples = 557\nvalue = [[0, 3, 24, 485, 45]\n[6, 387, 12, 95, 57]\n[0, 44, 7, 506, 0]\n...\n[0, 41, 140, 338, 38]\n[0, 0, 0, 0, 557]\n[0, 1, 0, 399, 157]]", fillcolor="#eca36f"] ;
3 -> 11 ;
23 [label="gini = 0.271\nsamples = 196\nvalue = [[0, 1, 22, 172, 1]\n[2, 107, 2, 48, 37]\n[0, 0, 3, 193, 0]\n...\n[0, 7, 9, 143, 37]\n[0, 0, 0, 0, 196]\n[0, 0, 0, 41, 155]]", fillcolor="#e58139"] ;
11 -> 23 ;
24 [label="gini = 0.326\nsamples = 361\nvalue = [[0, 2, 2, 313, 44]\n[4, 280, 10, 47, 20]\n[0, 44, 4, 313, 0]\n...\n[0, 34, 131, 195, 1]\n[0, 0, 0, 0, 361]\n[0, 1, 0, 358, 2]]", fillcolor="#ea995f"] ;
11 -> 24 ;
12 [label="Topic <= 1.421\ngini = 0.471\nsamples = 1320\nvalue = [[1, 151, 38, 932, 198]\n[17, 604, 460, 122, 117]\n[1, 297, 39, 958, 25]\n...\n[0, 307, 97, 859, 57]\n[0, 3, 2, 1, 1314]\n[1, 66, 3, 954, 296]]", fillcolor="#f7d7c0"] ;
3 -> 12 ;
15 [label="gini = 0.531\nsamples = 212\nvalue = [[0, 81, 10, 76, 45]\n[5, 122, 47, 9, 29]\n[1, 125, 8, 64, 14]\n...\n[0, 106, 9, 74, 23]\n[0, 2, 2, 0, 208]\n[1, 35, 0, 115, 61]]", fillcolor="#fcf1e9"] ;
12 -> 15 ;
16 [label="Topic <= 1.439\ngini = 0.431\nsamples = 1108\nvalue = [[1, 70, 28, 856, 153]\n[12, 482, 413, 113, 88]\n[0, 172, 31, 894, 11]\n...\n[0, 201, 88, 785, 34]\n[0, 1, 0, 1, 1106]\n[0, 31, 3, 839, 235]]", fillcolor="#f3c6a5"] ;
12 -> 16 ;
17 [label="gini = 0.339\nsamples = 449\nvalue = [[0, 15, 0, 368, 66]\n[6, 101, 228, 82, 32]\n[0, 36, 0, 413, 0]\n...\n[0, 52, 27, 357, 13]\n[0, 0, 0, 0, 449]\n[0, 4, 0, 383, 62]]", fillcolor="#eb9e67"] ;
16 -> 17 ;
18 [label="gini = 0.447\nsamples = 659\nvalue = [[1, 55, 28, 488, 87]\n[6, 381, 185, 31, 56]\n[0, 136, 31, 481, 11]\n...\n[0, 149, 61, 428, 21]\n[0, 1, 0, 1, 657]\n[0, 27, 3, 456, 173]]", fillcolor="#f5cdb0"] ;
16 -> 18 ;
4 [label="Topic <= 1.016\ngini = 0.564\nsamples = 922\nvalue = [[2, 385, 96, 294, 145]\n[27, 552, 218, 49, 76]\n[23, 474, 59, 341, 25]\n...\n[0, 365, 154, 240, 163]\n[1, 16, 23, 8, 874]\n[0, 138, 6, 578, 200]]", fillcolor="#ffffff"] ;
2 -> 4 ;
19 [label="gini = 0.292\nsamples = 94\nvalue = [[0, 23, 24, 44, 3]\n[1, 73, 2, 6, 12]\n[0, 5, 0, 89, 0]\n...\n[0, 8, 65, 21, 0]\n[0, 0, 0, 0, 94]\n[0, 0, 0, 35, 59]]", fillcolor="#e78a47"] ;
4 -> 19 ;
20 [label="gini = 0.559\nsamples = 828\nvalue = [[2, 362, 72, 250, 142]\n[26, 479, 216, 43, 64]\n[23, 469, 59, 252, 25]\n...\n[0, 357, 89, 219, 163]\n[1, 16, 23, 8, 780]\n[0, 138, 6, 543, 141]]", fillcolor="#fffdfc"] ;
4 -> 20 ;
}