digraph Tree {
node [shape=box, style="filled", color="black"] ;
0 [label="Topic <= 0.998\ngini = 0.558\nsamples = 12051\nvalue = [[28, 5139, 716, 4415, 1753]\n[328, 7317, 2422, 838, 1146]\n[148, 6554, 604, 4036, 709]\n...\n[15, 5653, 832, 3925, 1626]\n[10, 153, 50, 48, 11790]\n[17, 2009, 29, 7772, 2224]]", fillcolor="#fffdfc"] ;
1 [label="ОБ <= -0.369\ngini = 0.543\nsamples = 9287\nvalue = [[25, 4620, 559, 2705, 1378]\n[281, 5792, 1734, 565, 915]\n[127, 5783, 491, 2231, 655]\n...\n[15, 4954, 447, 2492, 1379]\n[8, 135, 29, 39, 9076]\n[17, 1805, 19, 5850, 1596]]", fillcolor="#fdf6f2"] ;
0 -> 1 [labeldistance=2.5, labelangle=45, headlabel="True"] ;
5 [label="Позафракційні <= -1.95\ngini = 0.531\nsamples = 2168\nvalue = [[9, 1214, 75, 448, 422]\n[36, 1449, 218, 157, 308]\n[26, 1325, 64, 487, 266]\n...\n[7, 1140, 78, 563, 380]\n[1, 18, 4, 1, 2144]\n[10, 320, 1, 1218, 619]]", fillcolor="#fcf1ea"] ;
1 -> 5 ;
7 [label="gini = 0.413\nsamples = 215\nvalue = [[2, 22, 2, 119, 70]\n[0, 116, 39, 35, 25]\n[1, 39, 6, 133, 36]\n...\n[1, 25, 7, 99, 83]\n[0, 0, 0, 0, 215]\n[0, 5, 0, 41, 169]]", fillcolor="#f2bf9a"] ;
5 -> 7 ;
8 [label="ВОБ <= -0.559\ngini = 0.515\nsamples = 1953\nvalue = [[7, 1192, 73, 329, 352]\n[36, 1333, 179, 122, 283]\n[25, 1286, 58, 354, 230]\n...\n[6, 1115, 71, 464, 297]\n[1, 18, 4, 1, 1929]\n[10, 315, 1, 1177, 450]]", fillcolor="#fbeadf"] ;
5 -> 8 ;
25 [label="gini = 0.529\nsamples = 456\nvalue = [[0, 241, 15, 97, 103]\n[8, 235, 38, 42, 133]\n[6, 255, 23, 128, 44]\n...\n[1, 227, 13, 160, 55]\n[0, 0, 0, 0, 456]\n[1, 81, 0, 280, 94]]", fillcolor="#fcf0e8"] ;
8 -> 25 ;
26 [label="gini = 0.495\nsamples = 1497\nvalue = [[7, 951, 58, 232, 249]\n[28, 1098, 141, 80, 150]\n[19, 1031, 35, 226, 186]\n...\n[5, 888, 58, 304, 242]\n[1, 18, 4, 1, 1473]\n[9, 234, 1, 897, 356]]", fillcolor="#f9e2d1"] ;
8 -> 26 ;
6 [label="Topic <= -1.596\ngini = 0.536\nsamples = 7119\nvalue = [[16, 3406, 484, 2257, 956]\n[245, 4343, 1516, 408, 607]\n[101, 4458, 427, 1744, 389]\n...\n[8, 3814, 369, 1929, 999]\n[7, 117, 25, 38, 6932]\n[7, 1485, 18, 4632, 977]]", fillcolor="#fdf3ed"] ;
1 -> 6 ;
9 [label="gini = 0.466\nsamples = 333\nvalue = [[2, 92, 54, 164, 21]\n[6, 249, 57, 9, 12]\n[0, 90, 62, 178, 3]\n...\n[1, 74, 83, 128, 47]\n[0, 24, 0, 19, 290]\n[0, 20, 0, 230, 83]]", fillcolor="#f6d5be"] ;
6 -> 9 ;
10 [label="НФ <= 0.392\ngini = 0.531\nsamples = 6786\nvalue = [[14, 3314, 430, 2093, 935]\n[239, 4094, 1459, 399, 595]\n[101, 4368, 365, 1566, 386]\n...\n[7, 3740, 286, 1801, 952]\n[7, 93, 25, 19, 6642]\n[7, 1465, 18, 4402, 894]]", fillcolor="#fcf1ea"] ;
6 -> 10 ;
13 [label="Екогрупа <= -1.626\ngini = 0.52\nsamples = 4111\nvalue = [[4, 1881, 215, 1394, 617]\n[120, 2621, 886, 222, 262]\n[46, 2600, 194, 999, 272]\n...\n[6, 2341, 176, 1225, 363]\n[4, 24, 12, 10, 4061]\n[4, 953, 9, 2680, 465]]", fillcolor="#fbede3"] ;
10 -> 13 ;
15 [label="gini = 0.462\nsamples = 185\nvalue = [[0, 47, 12, 95, 31]\n[2, 115, 29, 3, 36]\n[0, 58, 5, 122, 0]\n...\n[0, 63, 12, 89, 21]\n[0, 2, 0, 0, 183]\n[0, 11, 0, 38, 136]]", fillcolor="#f6d4bb"] ;
13 -> 15 ;
16 [label="gini = 0.515\nsamples = 3926\nvalue = [[4, 1834, 203, 1299, 586]\n[118, 2506, 857, 219, 226]\n[46, 2542, 189, 877, 272]\n...\n[6, 2278, 164, 1136, 342]\n[4, 22, 12, 10, 3878]\n[4, 942, 9, 2642, 329]]", fillcolor="#fbebdf"] ;
13 -> 16 ;
14 [label="gini = 0.532\nsamples = 2675\nvalue = [[10, 1433, 215, 699, 318]\n[119, 1473, 573, 177, 333]\n[55, 1768, 171, 567, 114]\n...\n[1, 1399, 110, 576, 589]\n[3, 69, 13, 9, 2581]\n[3, 512, 9, 1722, 429]]", fillcolor="#fcf2ea"] ;
10 -> 14 ;
2 [label="НФ <= -0.149\ngini = 0.523\nsamples = 2764\nvalue = [[3, 519, 157, 1710, 375]\n[47, 1525, 688, 273, 231]\n[21, 771, 113, 1805, 54]\n...\n[0, 699, 385, 1433, 247]\n[2, 18, 21, 9, 2714]\n[0, 204, 10, 1922, 628]]", fillcolor="#fbeee4"] ;
0 -> 2 [labeldistance=2.5, labelangle=-45, headlabel="False"] ;
3 [label="Topic <= 1.016\ngini = 0.458\nsamples = 1863\nvalue = [[1, 141, 69, 1417, 235]\n[20, 977, 485, 226, 155]\n[2, 317, 49, 1470, 25]\n...\n[0, 332, 234, 1203, 94]\n[0, 1, 2, 1, 1859]\n[0, 64, 3, 1362, 434]]", fillcolor="#f6d2b8"] ;
2 -> 3 ;
11 [label="Екогрупа <= -0.566\ngini = 0.348\nsamples = 561\nvalue = [[0, 2, 30, 487, 42]\n[5, 393, 11, 102, 50]\n[0, 42, 7, 512, 0]\n...\n[0, 40, 136, 345, 40]\n[0, 0, 0, 0, 561]\n[0, 0, 0, 414, 147]]", fillcolor="#eca36e"] ;
3 -> 11 ;
23 [label="gini = 0.268\nsamples = 188\nvalue = [[0, 1, 27, 159, 1]\n[1, 104, 2, 51, 30]\n[0, 0, 3, 185, 0]\n...\n[0, 5, 10, 134, 39]\n[0, 0, 0, 0, 188]\n[0, 0, 0, 43, 145]]", fillcolor="#e58139"] ;
11 -> 23 ;
24 [label="gini = 0.324\nsamples = 373\nvalue = [[0, 1, 3, 328, 41]\n[4, 289, 9, 51, 20]\n[0, 42, 4, 327, 0]\n...\n[0, 35, 126, 211, 1]\n[0, 0, 0, 0, 373]\n[0, 0, 0, 371, 2]]", fillcolor="#ea995f"] ;
11 -> 24 ;
12 [label="Позафракційні <= -0.345\ngini = 0.465\nsamples = 1302\nvalue = [[1, 139, 39, 930, 193]\n[15, 584, 474, 124, 105]\n[2, 275, 42, 958, 25]\n...\n[0, 292, 98, 858, 54]\n[0, 1, 2, 1, 1298]\n[0, 64, 3, 948, 287]]", fillcolor="#f6d5be"] ;
3 -> 12 ;
19 [label="Воля <= 0.475\ngini = 0.4\nsamples = 632\nvalue = [[0, 28, 2, 494, 108]\n[7, 186, 261, 99, 79]\n[1, 61, 6, 557, 7]\n...\n[0, 87, 38, 487, 20]\n[0, 0, 0, 0, 632]\n[0, 7, 0, 376, 249]]", fillcolor="#f1ba92"] ;
12 -> 19 ;
21 [label="gini = 0.433\nsamples = 309\nvalue = [[0, 24, 1, 212, 72]\n[3, 132, 89, 29, 56]\n[1, 54, 5, 243, 6]\n...\n[0, 59, 18, 221, 11]\n[0, 0, 0, 0, 309]\n[0, 5, 0, 59, 245]]", fillcolor="#f4c8a8"] ;
19 -> 21 ;
22 [label="gini = 0.29\nsamples = 323\nvalue = [[0, 4, 1, 282, 36]\n[4, 54, 172, 70, 23]\n[0, 7, 1, 314, 1]\n...\n[0, 28, 20, 266, 9]\n[0, 0, 0, 0, 323]\n[0, 2, 0, 317, 4]]", fillcolor="#e78a48"] ;
19 -> 22 ;
20 [label="gini = 0.483\nsamples = 670\nvalue = [[1, 111, 37, 436, 85]\n[8, 398, 213, 25, 26]\n[1, 214, 36, 401, 18]\n...\n[0, 205, 60, 371, 34]\n[0, 1, 2, 1, 666]\n[0, 57, 3, 572, 38]]", fillcolor="#f8ddca"] ;
12 -> 20 ;
4 [label="Topic <= 1.016\ngini = 0.563\nsamples = 901\nvalue = [[2, 378, 88, 293, 140]\n[27, 548, 203, 47, 76]\n[19, 454, 64, 335, 29]\n...\n[0, 367, 151, 230, 153]\n[2, 17, 19, 8, 855]\n[0, 140, 7, 560, 194]]", fillcolor="#ffffff"] ;
2 -> 4 ;
17 [label="gini = 0.283\nsamples = 93\nvalue = [[0, 18, 24, 47, 4]\n[0, 75, 1, 6, 11]\n[0, 5, 0, 88, 0]\n...\n[0, 8, 67, 18, 0]\n[0, 0, 0, 0, 93]\n[0, 0, 0, 32, 61]]", fillcolor="#e68743"] ;
4 -> 17 ;
18 [label="gini = 0.558\nsamples = 808\nvalue = [[2, 360, 64, 246, 136]\n[27, 473, 202, 41, 65]\n[19, 449, 64, 247, 29]\n...\n[0, 359, 84, 212, 153]\n[2, 17, 19, 8, 762]\n[0, 140, 7, 528, 133]]", fillcolor="#fffdfc"] ;
4 -> 18 ;
}