digraph Tree {
node [shape=box, style="filled", color="black"] ;
0 [label="Topic <= 0.998\ngini = 0.558\nsamples = 12051\nvalue = [[25, 5162, 698, 4398, 1768]\n[330, 7345, 2421, 810, 1145]\n[145, 6593, 575, 4045, 693]\n...\n[15, 5632, 841, 3935, 1628]\n[9, 140, 60, 48, 11794]\n[15, 2030, 23, 7734, 2249]]", fillcolor="#fefcfb"] ;
1 [label="ОБ <= -0.369\ngini = 0.543\nsamples = 9263\nvalue = [[21, 4617, 554, 2691, 1380]\n[277, 5793, 1743, 558, 892]\n[124, 5788, 470, 2242, 639]\n...\n[15, 4919, 452, 2500, 1377]\n[7, 118, 38, 38, 9062]\n[14, 1815, 17, 5833, 1584]]", fillcolor="#fdf6f0"] ;
0 -> 1 [labeldistance=2.5, labelangle=45, headlabel="True"] ;
5 [label="Позафракційні <= -1.95\ngini = 0.532\nsamples = 2170\nvalue = [[7, 1216, 75, 450, 422]\n[40, 1447, 221, 161, 301]\n[26, 1331, 65, 479, 269]\n...\n[7, 1138, 83, 561, 381]\n[1, 16, 7, 1, 2145]\n[8, 330, 1, 1229, 602]]", fillcolor="#fcf1e9"] ;
1 -> 5 ;
7 [label="gini = 0.409\nsamples = 215\nvalue = [[1, 21, 2, 125, 66]\n[0, 115, 36, 40, 24]\n[1, 38, 3, 132, 41]\n...\n[1, 22, 6, 98, 88]\n[0, 0, 0, 0, 215]\n[0, 2, 0, 42, 171]]", fillcolor="#f1bd97"] ;
5 -> 7 ;
8 [label="ВОБ <= -0.559\ngini = 0.515\nsamples = 1955\nvalue = [[6, 1195, 73, 325, 356]\n[40, 1332, 185, 121, 277]\n[25, 1293, 62, 347, 228]\n...\n[6, 1116, 77, 463, 293]\n[1, 16, 7, 1, 1930]\n[8, 328, 1, 1187, 431]]", fillcolor="#fbeade"] ;
5 -> 8 ;
23 [label="gini = 0.53\nsamples = 468\nvalue = [[0, 248, 11, 105, 104]\n[9, 240, 43, 44, 132]\n[6, 261, 26, 130, 45]\n...\n[0, 232, 15, 162, 59]\n[0, 0, 0, 0, 468]\n[1, 90, 0, 286, 91]]", fillcolor="#fcf0e8"] ;
8 -> 23 ;
24 [label="gini = 0.494\nsamples = 1487\nvalue = [[6, 947, 62, 220, 252]\n[31, 1092, 142, 77, 145]\n[19, 1032, 36, 217, 183]\n...\n[6, 884, 62, 301, 234]\n[1, 16, 7, 1, 1462]\n[7, 238, 1, 901, 340]]", fillcolor="#f9e1cf"] ;
8 -> 24 ;
6 [label="Topic <= -1.596\ngini = 0.536\nsamples = 7093\nvalue = [[14, 3401, 479, 2241, 958]\n[237, 4346, 1522, 397, 591]\n[98, 4457, 405, 1763, 370]\n...\n[8, 3781, 369, 1939, 996]\n[6, 102, 31, 37, 6917]\n[6, 1485, 16, 4604, 982]]", fillcolor="#fcf3ec"] ;
1 -> 6 ;
9 [label="gini = 0.47\nsamples = 337\nvalue = [[2, 92, 52, 170, 21]\n[5, 244, 63, 11, 14]\n[0, 85, 65, 185, 2]\n...\n[0, 80, 86, 128, 43]\n[0, 23, 1, 15, 298]\n[0, 23, 0, 232, 82]]", fillcolor="#f7d6bf"] ;
6 -> 9 ;
10 [label="НФ <= 0.573\ngini = 0.531\nsamples = 6756\nvalue = [[12, 3309, 427, 2071, 937]\n[232, 4102, 1459, 386, 577]\n[98, 4372, 340, 1578, 368]\n...\n[8, 3701, 283, 1811, 953]\n[6, 79, 30, 22, 6619]\n[6, 1462, 16, 4372, 900]]", fillcolor="#fcf1e8"] ;
6 -> 10 ;
13 [label="Екогрупа <= -1.414\ngini = 0.523\nsamples = 4598\nvalue = [[5, 2127, 252, 1545, 669]\n[127, 2929, 1009, 228, 305]\n[51, 2938, 217, 1120, 272]\n...\n[7, 2619, 199, 1323, 450]\n[4, 19, 16, 13, 4546]\n[2, 1031, 11, 3004, 550]]", fillcolor="#fbede3"] ;
10 -> 13 ;
21 [label="gini = 0.492\nsamples = 229\nvalue = [[0, 68, 11, 112, 38]\n[4, 141, 41, 5, 38]\n[0, 87, 5, 137, 0]\n...\n[0, 86, 17, 92, 34]\n[0, 1, 0, 0, 228]\n[0, 14, 0, 66, 149]]", fillcolor="#f9e0ce"] ;
13 -> 21 ;
22 [label="gini = 0.518\nsamples = 4369\nvalue = [[5, 2059, 241, 1433, 631]\n[123, 2788, 968, 223, 267]\n[51, 2851, 212, 983, 272]\n...\n[7, 2533, 182, 1231, 416]\n[4, 18, 16, 13, 4318]\n[2, 1017, 11, 2938, 401]]", fillcolor="#fbebdf"] ;
13 -> 22 ;
14 [label="gini = 0.531\nsamples = 2158\nvalue = [[7, 1182, 175, 526, 268]\n[105, 1173, 450, 158, 272]\n[47, 1434, 123, 458, 96]\n...\n[1, 1082, 84, 488, 503]\n[2, 60, 14, 9, 2073]\n[4, 431, 5, 1368, 350]]", fillcolor="#fcf1e9"] ;
10 -> 14 ;
2 [label="НФ <= -0.149\ngini = 0.525\nsamples = 2788\nvalue = [[4, 545, 144, 1707, 388]\n[53, 1552, 678, 252, 253]\n[21, 805, 105, 1803, 54]\n...\n[0, 713, 389, 1435, 251]\n[2, 22, 22, 10, 2732]\n[1, 215, 6, 1901, 665]]", fillcolor="#fceee5"] ;
0 -> 2 [labeldistance=2.5, labelangle=-45, headlabel="False"] ;
3 [label="Topic <= 1.016\ngini = 0.46\nsamples = 1881\nvalue = [[1, 158, 58, 1415, 249]\n[24, 1007, 467, 206, 177]\n[2, 332, 42, 1479, 26]\n...\n[0, 344, 234, 1213, 90]\n[0, 3, 2, 1, 1875]\n[1, 69, 1, 1339, 471]]", fillcolor="#f6d2b9"] ;
2 -> 3 ;
11 [label="Воля <= -0.217\ngini = 0.351\nsamples = 568\nvalue = [[0, 3, 23, 494, 48]\n[5, 403, 9, 95, 56]\n[0, 44, 10, 514, 0]\n...\n[0, 39, 142, 346, 41]\n[0, 0, 0, 0, 568]\n[0, 1, 0, 412, 155]]", fillcolor="#eca36f"] ;
3 -> 11 ;
25 [label="gini = 0.271\nsamples = 198\nvalue = [[0, 1, 21, 175, 1]\n[1, 112, 1, 49, 35]\n[0, 0, 3, 195, 0]\n...\n[0, 9, 11, 137, 41]\n[0, 0, 0, 0, 198]\n[0, 0, 0, 44, 154]]", fillcolor="#e58139"] ;
11 -> 25 ;
26 [label="gini = 0.327\nsamples = 370\nvalue = [[0, 2, 2, 319, 47]\n[4, 291, 8, 46, 21]\n[0, 44, 7, 319, 0]\n...\n[0, 30, 131, 209, 0]\n[0, 0, 0, 0, 370]\n[0, 1, 0, 368, 1]]", fillcolor="#ea995f"] ;
11 -> 26 ;
12 [label="Воля <= 0.475\ngini = 0.468\nsamples = 1313\nvalue = [[1, 155, 35, 921, 201]\n[19, 604, 458, 111, 121]\n[2, 288, 32, 965, 26]\n...\n[0, 305, 92, 867, 49]\n[0, 3, 2, 1, 1307]\n[1, 68, 1, 927, 316]]", fillcolor="#f6d6be"] ;
3 -> 12 ;
15 [label="Екогрупа <= -1.837\ngini = 0.512\nsamples = 636\nvalue = [[1, 120, 21, 349, 145]\n[11, 382, 133, 39, 71]\n[2, 213, 24, 373, 24]\n...\n[0, 197, 46, 362, 31]\n[0, 3, 2, 1, 630]\n[1, 44, 0, 292, 299]]", fillcolor="#fae8dc"] ;
12 -> 15 ;
17 [label="gini = 0.373\nsamples = 265\nvalue = [[0, 6, 1, 190, 68]\n[5, 115, 72, 20, 53]\n[0, 20, 4, 236, 5]\n...\n[0, 22, 14, 223, 6]\n[0, 0, 0, 0, 265]\n[1, 0, 0, 3, 261]]", fillcolor="#eead7e"] ;
15 -> 17 ;
18 [label="gini = 0.519\nsamples = 371\nvalue = [[1, 114, 20, 159, 77]\n[6, 267, 61, 19, 18]\n[2, 193, 20, 137, 19]\n...\n[0, 175, 32, 139, 25]\n[0, 3, 2, 1, 365]\n[0, 44, 0, 289, 38]]", fillcolor="#fbece1"] ;
15 -> 18 ;
16 [label="gini = 0.381\nsamples = 677\nvalue = [[0, 35, 14, 572, 56]\n[8, 222, 325, 72, 50]\n[0, 75, 8, 592, 2]\n...\n[0, 108, 46, 505, 18]\n[0, 0, 0, 0, 677]\n[0, 24, 1, 635, 17]]", fillcolor="#efb083"] ;
12 -> 16 ;
4 [label="Topic <= 1.016\ngini = 0.565\nsamples = 907\nvalue = [[3, 387, 86, 292, 139]\n[29, 545, 211, 46, 76]\n[19, 473, 63, 324, 28]\n...\n[0, 369, 155, 222, 161]\n[2, 19, 20, 9, 857]\n[0, 146, 5, 562, 194]]", fillcolor="#ffffff"] ;
2 -> 4 ;
19 [label="gini = 0.275\nsamples = 91\nvalue = [[0, 25, 20, 44, 2]\n[1, 69, 1, 7, 13]\n[0, 5, 0, 86, 0]\n...\n[0, 7, 66, 18, 0]\n[0, 0, 0, 0, 91]\n[0, 0, 0, 32, 59]]", fillcolor="#e5833c"] ;
4 -> 19 ;
20 [label="gini = 0.56\nsamples = 816\nvalue = [[3, 362, 66, 248, 137]\n[28, 476, 210, 39, 63]\n[19, 468, 63, 238, 28]\n...\n[0, 362, 89, 204, 161]\n[2, 19, 20, 9, 766]\n[0, 146, 5, 530, 135]]", fillcolor="#fffdfc"] ;
4 -> 20 ;
}